{"learner":{"attributes":{"scikit_learn":"{\"_estimator_type\": \"regressor\"}"},"feature_names":["stress","temp","C","Si","Mn","P","S","Cr","Mo","W","Ni","Cu","V","Nb","N","Al","B","Co","Ta","O","Ntemp","Ntime","Ttemp","Ttime","Atemp","Atime","Rh","N_severity","T_severity","A_severity"],"feature_types":["float","float","float","float","float","float","float","float","float","float","float","float","float","float","float","float","float","float","float","float","float","float","float","float","float","float","float","float","float","float"],"gradient_booster":{"model":{"cats":{"enc":[],"feature_segments":[],"sorted_idx":[]},"gbtree_model_param":{"num_parallel_tree":"1","num_trees":"500"},"iteration_indptr":[0,1,2,3,4,5,6,7,8,9,10,11,12,13,14,15,16,17,18,19,20,21,22,23,24,25,26,27,28,29,30,31,32,33,34,35,36,37,38,39,40,41,42,43,44,45,46,47,48,49,50,51,52,53,54,55,56,57,58,59,60,61,62,63,64,65,66,67,68,69,70,71,72,73,74,75,76,77,78,79,80,81,82,83,84,85,86,87,88,89,90,91,92,93,94,95,96,97,98,99,100,101,102,103,104,105,106,107,108,109,110,111,112,113,114,115,116,117,118,119,120,121,122,123,124,125,126,127,128,129,130,131,132,133,134,135,136,137,138,139,140,141,142,143,144,145,146,147,148,149,150,151,152,153,154,155,156,157,158,159,160,161,162,163,164,165,166,167,168,169,170,171,172,173,174,175,176,177,178,179,180,181,182,183,184,185,186,187,188,189,190,191,192,193,194,195,196,197,198,199,200,201,202,203,204,205,206,207,208,209,210,211,212,213,214,215,216,217,218,219,220,221,222,223,224,225,226,227,228,229,230,231,232,233,234,235,236,237,238,239,240,241,242,243,244,245,246,247,248,249,250,251,252,253,254,255,256,257,258,259,260,261,262,263,264,265,266,267,268,269,270,271,272,273,274,275,276,277,278,279,280,281,282,283,284,285,286,287,288,289,290,291,292,293,294,295,296,297,298,299,300,301,302,303,304,305,306,307,308,309,310,311,312,313,314,315,316,317,318,319,320,321,322,323,324,325,326,327,328,329,330,331,332,333,334,335,336,337,338,339,340,341,342,343,344,345,346,347,348,349,350,351,352,353,354,355,356,357,358,359,360,361,362,363,364,365,366,367,368,369,370,371,372,373,374,375,376,377,378,379,380,381,382,383,384,385,386,387,388,389,390,391,392,393,394,395,396,397,398,399,400,401,402,403,404,405,406,407,408,409,410,411,412,413,414,415,416,417,418,419,420,421,422,423,424,425,426,427,428,429,430,431,432,433,434,435,436,437,438,439,440,441,442,443,444,445,446,447,448,449,450,451,452,453,454,455,456,457,458,459,460,461,462,463,464,465,466,467,468,469,470,471,472,473,474,475,476,477,478,479,480,481,482,483,484,485,486,487,488,489,490,491,492,493,494,495,496,497,498,499,500],"tree_info":[0,0,0,0,0,0,0,0,0,0,0,0,0,0,0,0,0,0,0,0,0,0,0,0,0,0,0,0,0,0,0,0,0,0,0,0,0,0,0,0,0,0,0,0,0,0,0,0,0,0,0,0,0,0,0,0,0,0,0,0,0,0,0,0,0,0,0,0,0,0,0,0,0,0,0,0,0,0,0,0,0,0,0,0,0,0,0,0,0,0,0,0,0,0,0,0,0,0,0,0,0,0,0,0,0,0,0,0,0,0,0,0,0,0,0,0,0,0,0,0,0,0,0,0,0,0,0,0,0,0,0,0,0,0,0,0,0,0,0,0,0,0,0,0,0,0,0,0,0,0,0,0,0,0,0,0,0,0,0,0,0,0,0,0,0,0,0,0,0,0,0,0,0,0,0,0,0,0,0,0,0,0,0,0,0,0,0,0,0,0,0,0,0,0,0,0,0,0,0,0,0,0,0,0,0,0,0,0,0,0,0,0,0,0,0,0,0,0,0,0,0,0,0,0,0,0,0,0,0,0,0,0,0,0,0,0,0,0,0,0,0,0,0,0,0,0,0,0,0,0,0,0,0,0,0,0,0,0,0,0,0,0,0,0,0,0,0,0,0,0,0,0,0,0,0,0,0,0,0,0,0,0,0,0,0,0,0,0,0,0,0,0,0,0,0,0,0,0,0,0,0,0,0,0,0,0,0,0,0,0,0,0,0,0,0,0,0,0,0,0,0,0,0,0,0,0,0,0,0,0,0,0,0,0,0,0,0,0,0,0,0,0,0,0,0,0,0,0,0,0,0,0,0,0,0,0,0,0,0,0,0,0,0,0,0,0,0,0,0,0,0,0,0,0,0,0,0,0,0,0,0,0,0,0,0,0,0,0,0,0,0,0,0,0,0,0,0,0,0,0,0,0,0,0,0,0,0,0,0,0,0,0,0,0,0,0,0,0,0,0,0,0,0,0,0,0,0,0,0,0,0,0,0,0,0,0,0,0,0,0,0,0,0,0,0,0,0,0,0,0,0,0,0,0,0,0,0,0,0,0,0,0,0,0,0,0,0,0,0,0,0,0,0,0,0,0,0,0,0,0,0,0,0,0,0,0,0,0,0,0,0,0,0,0,0,0,0,0,0,0],"trees":[{"base_weights":[7.4007157E-3,-6.9310045E-1,2.5409076E-1,-9.4163254E-2,-8.8344556E-1,4.6479058E-1,-1.9517282E-1,4.2741454E-1,-2.0763431E-1,-5.24021E-1,-1.0701406E0,5.105768E-1,-3.3515504E-1,-4.398117E-2,-1.011128E0,3.9052766E-2,1.6248862E-1,8.53057E-3,-4.6096656E-1,-3.00063E-1,-7.1164966E-1,-8.0038077E-1,-1.3926376E0,6.865739E-1,3.0032557E-1,-6.6522746E-3,-6.5773267E-1,2.145454E-1,-2.1723792E-1,-1.7664842E-1,-1.3820536E0,-0E0,1.0301075E-2,-2.4105857E-1,1.0985021E-1,-1.2874532E-1,-7.406473E-1,-1.4355555E-1,-4.771694E-2,-3.3086568E-1,-9.257579E-1,-2.513789E-1,-1.2005417E0,-1.2907841E0,-1.0359062E-1,1.2602754E0,5.0269693E-1,6.273196E-1,-2.3250253E-1,3.5310346E-1,-4.567257E-1,-5.186231E-1,-4.9498018E-2,4.5275587E-1,-4.459423E-2,1.2378465E-1,-5.836407E-1,-8.4090225E-2,-2.0415021E-2,-1.0022802E0,-8.583351E-2,-1.7289035E-3,-1.95348E-2,-1.3026642E-2,7.610393E-3,-7.4023136E-4,-4.344639E-2,-1.3785874E-2,-4.067191E-2,1.04865115E-2,-1.2777807E-2,-2.2091672E-2,2.4105348E-3,-2.7366174E-2,-5.5539098E-2,-4.753494E-3,-3.5821494E-2,-4.6387788E-2,-8.9208685E-2,-9.11477E-2,-5.712047E-2,4.497531E-2,7.017424E-2,3.9331317E-2,4.4933497E-3,5.317859E-2,1.4376501E-2,1.5232236E-3,-3.0469963E-2,2.2208596E-2,-1.1439524E-2,-9.17047E-3,-3.6375936E-2,-1.618697E-2,-4.743093E-2,3.8921323E-2,1.8043203E-2,-1.9466965E-2,8.457E-3,3.2437254E-2,-9.670162E-5,-1.5399418E-2,-3.9853692E-2,-1.4339131E-2,1.3878708E-2,-2.2812838E-2,-6.9173664E-2],"categories":[],"categories_nodes":[],"categories_segments":[],"categories_sizes":[],"default_left":[0,0,0,0,0,0,0,0,0,0,0,0,0,0,0,0,0,0,0,0,0,0,0,0,0,0,0,0,0,0,0,0,0,0,0,0,0,0,0,0,0,0,0,0,0,0,0,0,0,0,0,0,0,0,0,0,0,0,0,0,0,0,0,0,0,0,0,0,0,0,0,0,0,0,0,0,0,0,0,0,0,0,0,0,0,0,0,0,0,0,0,0,0,0,0,0,0,0,0,0,0,0,0,0,0,0,0],"id":0,"left_children":[1,3,5,7,9,11,13,15,17,19,21,23,25,27,29,-1,31,33,35,37,39,41,43,45,47,49,51,53,55,57,59,-1,-1,61,63,65,67,69,-1,71,73,75,77,79,-1,81,83,85,87,89,91,93,-1,95,97,99,101,103,-1,105,-1,-1,-1,-1,-1,-1,-1,-1,-1,-1,-1,-1,-1,-1,-1,-1,-1,-1,-1,-1,-1,-1,-1,-1,-1,-1,-1,-1,-1,-1,-1,-1,-1,-1,-1,-1,-1,-1,-1,-1,-1,-1,-1,-1,-1,-1,-1],"loss_changes":[2.2495367E2,3.846666E1,9.127501E1,4.979039E0,1.6525192E1,2.4215652E1,3.7846626E1,1.1840618E0,3.8277218E0,3.4671707E0,1.3281509E1,2.2674347E1,3.7440205E0,1.1737452E1,1.445742E1,0E0,7.553339E-2,9.7431433E-1,2.7910137E0,4.1563687E0,3.4814262E0,2.0203793E1,2.1777039E0,3.4740463E1,4.984134E1,3.2480469E0,1.6761446E-1,6.5426326E0,1.9735636E1,2.594875E-1,2.2011147E0,0E0,0E0,2.8383237E-1,4.681022E-1,1.2481531E0,2.4213123E-1,1.4826362E0,0E0,8.5990334E-1,1.3268166E0,2.8310976E0,6.6706924E0,2.990219E0,0E0,2.6921692E0,2.9965805E1,2.5796486E1,1.0879602E1,7.0607436E-1,4.4158256E-1,8.2264566E-1,0E0,1.2511225E0,3.8457475E0,5.477717E0,4.1153374E0,1.0335103E0,0E0,2.9313354E0,0E0,0E0,0E0,0E0,0E0,0E0,0E0,0E0,0E0,0E0,0E0,0E0,0E0,0E0,0E0,0E0,0E0,0E0,0E0,0E0,0E0,0E0,0E0,0E0,0E0,0E0,0E0,0E0,0E0,0E0,0E0,0E0,0E0,0E0,0E0,0E0,0E0,0E0,0E0,0E0,0E0,0E0,0E0,0E0,0E0,0E0,0E0],"parents":[2147483647,0,0,1,1,2,2,3,3,4,4,5,5,6,6,7,7,8,8,9,9,10,10,11,11,12,12,13,13,14,14,16,16,17,17,18,18,19,19,20,20,21,21,22,22,23,23,24,24,25,25,26,26,27,27,28,28,29,29,30,30,33,33,34,34,35,35,36,36,37,37,39,39,40,40,41,41,42,42,43,43,45,45,46,46,47,47,48,48,49,49,50,50,51,51,53,53,54,54,55,55,56,56,57,57,59,59],"right_children":[2,4,6,8,10,12,14,16,18,20,22,24,26,28,30,-1,32,34,36,38,40,42,44,46,48,50,52,54,56,58,60,-1,-1,62,64,66,68,70,-1,72,74,76,78,80,-1,82,84,86,88,90,92,94,-1,96,98,100,102,104,-1,106,-1,-1,-1,-1,-1,-1,-1,-1,-1,-1,-1,-1,-1,-1,-1,-1,-1,-1,-1,-1,-1,-1,-1,-1,-1,-1,-1,-1,-1,-1,-1,-1,-1,-1,-1,-1,-1,-1,-1,-1,-1,-1,-1,-1,-1,-1,-1],"split_conditions":[-5.1294655E-1,-4.6438822E-1,4.5394018E-1,-9.792251E-1,-5.0358856E-1,2.292134E0,7.7980083E-1,-3.790361E-1,1.0830323E0,1.5812647E-2,5.652855E-1,-6.633271E-1,-9.452189E-1,3.877225E-1,-1.3457512E0,3.9052766E-2,-1.3233149E0,2.3423985E-1,-7.432582E-1,1.5842334E0,-1.3290575E0,8.0814236E-1,1.290026E-1,-5.394686E-1,-9.4704777E-1,3.3325336E0,3.3325336E0,7.545568E-3,-3.4640476E-1,1.6807654E0,1.290026E-1,-0E0,1.0301075E-2,6.595245E-2,-9.3606156E-1,1.7945119E0,-1.3364425E0,-6.925814E-1,-4.771694E-2,9.213323E-1,-3.6785632E-1,1.3170801E0,1.0830323E0,-1.3502129E0,-1.0359062E-1,-3.7311348E-1,-8.89707E-1,1.290026E-1,-5.501944E-1,7.679194E-1,3.7615643E0,-1.9084166E0,-4.9498018E-2,-3.4640476E-1,6.7024577E-1,-8.397901E-1,-9.7924817E-1,1.1122997E0,-2.0415021E-2,1.2410089E0,-8.583351E-2,-1.7289035E-3,-1.95348E-2,-1.3026642E-2,7.610393E-3,-7.4023136E-4,-4.344639E-2,-1.3785874E-2,-4.067191E-2,1.04865115E-2,-1.2777807E-2,-2.2091672E-2,2.4105348E-3,-2.7366174E-2,-5.5539098E-2,-4.753494E-3,-3.5821494E-2,-4.6387788E-2,-8.9208685E-2,-9.11477E-2,-5.712047E-2,4.497531E-2,7.017424E-2,3.9331317E-2,4.4933497E-3,5.317859E-2,1.4376501E-2,1.5232236E-3,-3.0469963E-2,2.2208596E-2,-1.1439524E-2,-9.17047E-3,-3.6375936E-2,-1.618697E-2,-4.743093E-2,3.8921323E-2,1.8043203E-2,-1.9466965E-2,8.457E-3,3.2437254E-2,-9.670162E-5,-1.5399418E-2,-3.9853692E-2,-1.4339131E-2,1.3878708E-2,-2.2812838E-2,-6.9173664E-2],"split_indices":[2,0,20,0,10,0,0,23,1,1,0,1,28,1,6,0,3,8,0,0,3,1,1,0,0,0,0,0,0,0,1,0,0,8,12,1,8,15,0,1,0,28,1,5,0,23,1,1,0,6,0,1,0,0,27,0,28,0,0,0,0,0,0,0,0,0,0,0,0,0,0,0,0,0,0,0,0,0,0,0,0,0,0,0,0,0,0,0,0,0,0,0,0,0,0,0,0,0,0,0,0,0,0,0,0,0,0],"split_type":[0,0,0,0,0,0,0,0,0,0,0,0,0,0,0,0,0,0,0,0,0,0,0,0,0,0,0,0,0,0,0,0,0,0,0,0,0,0,0,0,0,0,0,0,0,0,0,0,0,0,0,0,0,0,0,0,0,0,0,0,0,0,0,0,0,0,0,0,0,0,0,0,0,0,0,0,0,0,0,0,0,0,0,0,0,0,0,0,0,0,0,0,0,0,0,0,0,0,0,0,0,0,0,0,0,0,0],"sum_hessian":[1.3E3,3.38E2,9.62E2,8.2E1,2.56E2,6.55E2,3.07E2,1.4E1,6.8E1,8.9E1,1.67E2,6.2E2,3.5E1,2.6E2,4.7E1,5E0,9E0,3.7E1,3.1E1,4.2E1,4.7E1,9.3E1,7.4E1,3.36E2,2.84E2,1.8E1,1.7E1,1.04E2,1.56E2,1.5E1,3.2E1,2E0,7E0,1E1,2.7E1,1.5E1,1.6E1,3.5E1,7E0,1.8E1,2.9E1,4E1,5.3E1,6.7E1,7E0,8E1,2.56E2,1.76E2,1.08E2,1E1,8E0,1.4E1,3E0,5.4E1,5E1,8.1E1,7.5E1,1.2E1,3E0,1.7E1,1.5E1,5E0,5E0,2E0,2.5E1,1.4E1,1E0,3E0,1.3E1,8E0,2.7E1,1.4E1,4E0,1.1E1,1.8E1,3.1E1,9E0,3.8E1,1.5E1,1.2E1,5.5E1,2.5E1,5.5E1,1.51E2,1.05E2,7.6E1,1E2,6.4E1,4.4E1,9E0,1E0,5E0,3E0,1.1E1,3E0,1E1,4.4E1,1.9E1,3.1E1,1.5E1,6.6E1,3.4E1,4.1E1,8E0,4E0,8E0,9E0],"tree_param":{"num_deleted":"0","num_feature":"30","num_nodes":"107","size_leaf_vector":"1"}},{"base_weights":[-1.3613038E-2,-4.1589177E-1,3.1674856E-1,-3.265351E-1,-9.1734356E-1,4.0831727E-1,-5.75862E-1,-2.0697045E-1,-7.0073485E-1,-1.0613192E0,-3.4094006E-1,5.0818384E-1,1.8667804E-1,-7.421997E-1,8.783527E-2,-3.4350458E-1,5.023842E-2,-1.0763117E0,-5.7772523E-1,-8.4202117E-1,-6.237184E-2,-2.8022876E-2,-1.1918579E-2,5.7097244E-1,4.0114772E-1,2.6642466E-1,3.550219E-2,-7.9343116E-1,-2.162808E-2,-7.088449E-3,2.7473835E-2,-1.7552342E-1,-5.7021415E-1,2.5238156E-1,-3.5291696E-1,-5.7873476E-2,-1.3749884E-2,-2.5159622E-2,-3.409366E-2,-1.94734E-2,-4.6883922E-2,5.0906324E-1,6.8370104E-1,4.2563707E-1,6.8588727E-3,-1.1424697E-1,3.101787E-1,-3.6370944E-2,1.273524E-2,-1.7102987E-2,-4.1375842E-2,3.4405978E-3,-1.3769584E-2,-3.81377E-2,-1.8797982E-2,1.9253878E-2,-4.0195297E-5,-9.359735E-3,-2.9961456E-2,2.7504763E-2,1.7604858E-2,2.531224E-2,3.9412808E-2,2.8974637E-2,1.9500008E-2,-1.47259375E-2,-1.3431978E-4,3.9533316E-3,1.7775862E-2,-6.0381927E-3,6.678421E-3],"categories":[],"categories_nodes":[],"categories_segments":[],"categories_sizes":[],"default_left":[0,0,0,0,0,0,0,0,0,0,0,0,0,0,0,0,0,0,0,0,0,0,0,0,0,0,0,0,0,0,0,0,0,0,0,0,0,0,0,0,0,0,0,0,0,0,0,0,0,0,0,0,0,0,0,0,0,0,0,0,0,0,0,0,0,0,0,0,0,0,0],"id":1,"left_children":[1,3,5,7,9,11,13,15,17,19,21,23,25,27,29,31,33,35,37,39,-1,-1,-1,41,43,45,47,49,-1,-1,-1,51,53,55,57,-1,-1,-1,-1,-1,-1,59,61,63,-1,65,67,69,-1,-1,-1,-1,-1,-1,-1,-1,-1,-1,-1,-1,-1,-1,-1,-1,-1,-1,-1,-1,-1,-1,-1],"loss_changes":[1.7091486E2,2.5564743E1,5.792344E1,2.1866287E1,6.7178955E0,1.4023766E1,7.416889E0,1.3250872E1,4.710533E0,1.5569305E0,2.1431565E-1,2.6375427E0,2.3835564E0,3.7494278E-1,1.6025971E0,9.193747E0,1.0754874E1,1.359375E0,2.5252342E-1,1.0172386E0,0E0,0E0,0E0,1.4518814E0,9.6489334E-1,2.2369576E0,1.1496866E0,2.7693558E-1,0E0,0E0,0E0,3.5290008E0,3.4891434E0,2.995247E0,1.6052384E0,0E0,0E0,0E0,0E0,0E0,0E0,8.882866E-1,1.2155724E0,5.104561E-1,0E0,2.510454E-1,1.1648693E0,7.893003E-1,0E0,0E0,0E0,0E0,0E0,0E0,0E0,0E0,0E0,0E0,0E0,0E0,0E0,0E0,0E0,0E0,0E0,0E0,0E0,0E0,0E0,0E0,0E0],"parents":[2147483647,0,0,1,1,2,2,3,3,4,4,5,5,6,6,7,7,8,8,9,9,10,10,11,11,12,12,13,13,14,14,15,15,16,16,17,17,18,18,19,19,23,23,24,24,25,25,26,26,27,27,31,31,32,32,33,33,34,34,41,41,42,42,43,43,45,45,46,46,47,47],"right_children":[2,4,6,8,10,12,14,16,18,20,22,24,26,28,30,32,34,36,38,40,-1,-1,-1,42,44,46,48,50,-1,-1,-1,52,54,56,58,-1,-1,-1,-1,-1,-1,60,62,64,-1,66,68,70,-1,-1,-1,-1,-1,-1,-1,-1,-1,-1,-1,-1,-1,-1,-1,-1,-1,-1,-1,-1,-1,-1,-1],"split_conditions":[-2.4060592E-1,1.7752749E0,4.817279E-1,1.1317726E0,-7.685939E-1,2.2484627E-1,7.529079E-1,-2.5293168E-1,-2.5691035E-1,1.2982177E0,-1.4955915E0,1.1055359E-1,-1.2248787E-1,1.0538104E0,4.825054E-1,-3.8853154E-1,4.583919E-1,1.3351433E0,1.1552514E0,1.8505302E-1,-6.237184E-2,-2.8022876E-2,-1.1918579E-2,-7.0352286E-2,5.334174E-1,-1.3520277E0,1.2608342E0,-1.0034529E0,-2.162808E-2,-7.088449E-3,2.7473835E-2,7.481148E-1,-8.363634E-2,-3.790361E-1,7.481148E-1,-5.7873476E-2,-1.3749884E-2,-2.5159622E-2,-3.409366E-2,-1.94734E-2,-4.6883922E-2,3.9945117E-1,-1.8629493E0,1.47856E-1,6.8588727E-3,-1.4955915E0,2.5763955E-2,2.551566E-1,1.273524E-2,-1.7102987E-2,-4.1375842E-2,3.4405978E-3,-1.3769584E-2,-3.81377E-2,-1.8797982E-2,1.9253878E-2,-4.0195297E-5,-9.359735E-3,-2.9961456E-2,2.7504763E-2,1.7604858E-2,2.531224E-2,3.9412808E-2,2.8974637E-2,1.9500008E-2,-1.47259375E-2,-1.3431978E-4,3.9533316E-3,1.7775862E-2,-6.0381927E-3,6.678421E-3],"split_indices":[17,27,13,8,15,22,14,10,12,22,3,11,15,20,20,15,10,4,4,7,0,0,0,11,8,3,3,4,0,0,0,22,8,23,22,0,0,0,0,0,0,3,7,4,0,3,7,10,0,0,0,0,0,0,0,0,0,0,0,0,0,0,0,0,0,0,0,0,0,0,0],"split_type":[0,0,0,0,0,0,0,0,0,0,0,0,0,0,0,0,0,0,0,0,0,0,0,0,0,0,0,0,0,0,0,0,0,0,0,0,0,0,0,0,0,0,0,0,0,0,0,0,0,0,0,0,0,0,0,0,0,0,0,0,0,0,0,0,0,0,0,0,0,0,0],"sum_hessian":[1.284E3,5.79E2,7.05E2,4.93E2,8.6E1,6.4E2,6.5E1,3.75E2,1.18E2,6.8E1,1.8E1,4.4E2,2E2,5.2E1,1.3E1,2.45E2,1.3E2,2.7E1,9.1E1,3.4E1,3.4E1,4E0,1.4E1,2.74E2,1.66E2,1.3E2,7E1,4.3E1,9E0,9E0,4E0,1.42E2,1.03E2,8.7E1,4.3E1,2.4E1,3E0,5.7E1,3.4E1,7E0,2.7E1,1.81E2,9.3E1,1.51E2,1.5E1,1.3E1,1.17E2,5.3E1,1.7E1,4E0,3.9E1,4.1E1,1.01E2,5E1,5.3E1,5.7E1,3E1,2.7E1,1.6E1,1.41E2,4E1,3.7E1,5.6E1,2.5E1,1.26E2,4E0,9E0,2E1,9.7E1,3.6E1,1.7E1],"tree_param":{"num_deleted":"0","num_feature":"30","num_nodes":"71","size_leaf_vector":"1"}},{"base_weights":[1.0340351E-2,3.3410892E-1,-4.0010566E-1,-3.1248042E-1,4.2448494E-1,-2.252192E-1,-1.056879E0,2.6674497E-1,-5.6129664E-1,5.148816E-1,-1.8703371E-2,2.8256863E-1,-3.006086E-1,-4.0117332E-1,-1.4542158E0,3.5899138E-1,-1.6420983E-2,-4.4099875E-2,-7.232935E-1,6.371167E-1,5.1465977E-2,-4.7680217E-1,1.1121418E-1,-3.8873032E-1,3.5512006E-1,2.1790596E-2,-5.462414E-1,-2.7740836E-1,-6.7028224E-2,-8.765175E-2,-1.3064909E0,2.6826272E-2,-0E0,-2.0532645E-1,3.3166388E-1,-5.5437154E-1,-6.8190575E-2,9.660903E-1,4.6201932E-1,2.7519467E-1,-8.024293E-1,-2.1991566E-1,-8.0445176E-1,2.4450693E-1,-6.2788516E-1,-2.991674E-2,-3.5211917E-2,1.170439E-1,5.5993646E-1,3.864967E-1,-2.3272157E-1,-2.844885E-1,-8.2659143E-1,-4.9551392E-1,6.660064E-2,-1.0045376E0,-8.570065E-2,-3.5493744E-3,8.804971E-3,2.861344E-3,-1.7812824E-2,-0E0,1.9991733E-2,-1.749475E-2,-6.452408E-2,7.00865E-2,3.8718894E-2,4.5745596E-2,8.915595E-3,2.2961235E-2,-7.6940744E-3,-2.6305601E-2,-4.5402884E-2,2.8995086E-2,-3.4390725E-2,-5.720137E-3,-4.7508184E-2,1.7779162E-2,-5.0996494E-2,-2.5752569E-3,-3.5945415E-2,1.3283292E-2,-1.2516645E-2,2.3871022E-3,2.3063429E-2,3.2586046E-2,8.859733E-3,2.488337E-2,1.6066534E-3,1.69848E-2,-1.5788754E-2,-3.9909254E-3,-4.4614896E-2,-1.5080774E-2,-4.960942E-2,-1.1165628E-2,-3.9306972E-2,-1.03532765E-2,1.4443676E-2,-1.1367842E-2,-7.165263E-2],"categories":[],"categories_nodes":[],"categories_segments":[],"categories_sizes":[],"default_left":[0,0,0,0,0,0,0,0,0,0,0,0,0,0,0,0,0,0,0,0,0,0,0,0,0,0,0,0,0,0,0,0,0,0,0,0,0,0,0,0,0,0,0,0,0,0,0,0,0,0,0,0,0,0,0,0,0,0,0,0,0,0,0,0,0,0,0,0,0,0,0,0,0,0,0,0,0,0,0,0,0,0,0,0,0,0,0,0,0,0,0,0,0,0,0,0,0,0,0,0,0],"id":2,"left_children":[1,3,5,7,9,11,13,15,17,19,21,23,25,27,29,31,-1,33,35,37,39,41,43,45,47,49,51,53,-1,-1,55,-1,57,59,61,63,-1,65,67,69,71,73,75,77,79,81,-1,83,85,87,89,91,93,95,97,99,-1,-1,-1,-1,-1,-1,-1,-1,-1,-1,-1,-1,-1,-1,-1,-1,-1,-1,-1,-1,-1,-1,-1,-1,-1,-1,-1,-1,-1,-1,-1,-1,-1,-1,-1,-1,-1,-1,-1,-1,-1,-1,-1,-1,-1],"loss_changes":[1.6969412E2,4.1867256E1,6.430038E1,1.2861796E1,2.5178596E1,1.7160439E1,2.997432E1,1.6033055E0,5.085987E0,2.941072E1,6.4576993E0,2.9594994E0,3.0869972E1,4.814451E0,6.2615967E-1,1.5127575E0,0E0,1.0247952E0,4.137411E0,2.3143036E1,2.1182596E1,1.7407022E0,8.390576E0,5.847674E-1,2.4511452E0,1.5792265E1,1.5871254E1,3.227165E0,0E0,0E0,4.5281525E0,0E0,1.2830758E-1,5.2581656E-1,8.946645E-2,5.2546015E0,0E0,1.0556412E1,3.4548058E1,7.049936E0,5.0143242E-2,6.0231595E0,7.9032516E-1,1.0408564E1,5.6796265E-1,3.255763E-1,0E0,5.473176E-1,7.852602E-1,2.6886673E0,4.859003E0,1.4262009E1,8.7864E0,1.7803249E0,1.1020823E0,1.0498253E1,0E0,0E0,0E0,0E0,0E0,0E0,0E0,0E0,0E0,0E0,0E0,0E0,0E0,0E0,0E0,0E0,0E0,0E0,0E0,0E0,0E0,0E0,0E0,0E0,0E0,0E0,0E0,0E0,0E0,0E0,0E0,0E0,0E0,0E0,0E0,0E0,0E0,0E0,0E0,0E0,0E0,0E0,0E0,0E0,0E0],"parents":[2147483647,0,0,1,1,2,2,3,3,4,4,5,5,6,6,7,7,8,8,9,9,10,10,11,11,12,12,13,13,14,14,15,15,17,17,18,18,19,19,20,20,21,21,22,22,23,23,24,24,25,25,26,26,27,27,30,30,32,32,33,33,34,34,35,35,37,37,38,38,39,39,40,40,41,41,42,42,43,43,44,44,45,45,47,47,48,48,49,49,50,50,51,51,52,52,53,53,54,54,55,55],"right_children":[2,4,6,8,10,12,14,16,18,20,22,24,26,28,30,32,-1,34,36,38,40,42,44,46,48,50,52,54,-1,-1,56,-1,58,60,62,64,-1,66,68,70,72,74,76,78,80,82,-1,84,86,88,90,92,94,96,98,100,-1,-1,-1,-1,-1,-1,-1,-1,-1,-1,-1,-1,-1,-1,-1,-1,-1,-1,-1,-1,-1,-1,-1,-1,-1,-1,-1,-1,-1,-1,-1,-1,-1,-1,-1,-1,-1,-1,-1,-1,-1,-1,-1,-1,-1],"split_conditions":[4.5394018E-1,-2.4995966E-1,7.1544623E-1,-2.5275697E-3,1.144477E0,-6.789036E-1,-6.633271E-1,4.4730204E-1,-2.4987286E-1,1.290026E-1,-6.108434E-1,-9.3606156E-1,5.655924E-1,2.1312475E0,-1.1462662E0,-8.8986146E-1,-1.6420983E-2,1.0831399E0,1.290026E-1,-7.53984E-1,-9.684993E-1,1.4555242E0,3.3325336E0,9.213323E-1,-1.2371765E0,2.8997105E-2,-3.4640476E-1,7.055213E-1,-6.7028224E-2,-8.765175E-2,1.290026E-1,2.6826272E-2,-2.391471E-1,-6.252747E-1,-8.183386E-1,1.6378623E0,-6.8190575E-2,-6.633271E-1,-1.4233168E0,1.0830323E0,-1.0334392E0,-1.9084166E0,-6.436689E-1,-6.633271E-1,-1.7480418E-1,3.9945117E-1,-3.5211917E-2,1.9752479E0,-8.183386E-1,2.4219257E-1,-6.633271E-1,1.0830323E0,-9.7924817E-1,-3.8693756E-1,-1.0103018E0,1.1552027E0,-8.570065E-2,-3.5493744E-3,8.804971E-3,2.861344E-3,-1.7812824E-2,-0E0,1.9991733E-2,-1.749475E-2,-6.452408E-2,7.00865E-2,3.8718894E-2,4.5745596E-2,8.915595E-3,2.2961235E-2,-7.6940744E-3,-2.6305601E-2,-4.5402884E-2,2.8995086E-2,-3.4390725E-2,-5.720137E-3,-4.7508184E-2,1.7779162E-2,-5.0996494E-2,-2.5752569E-3,-3.5945415E-2,1.3283292E-2,-1.2516645E-2,2.3871022E-3,2.3063429E-2,3.2586046E-2,8.859733E-3,2.488337E-2,1.6066534E-3,1.69848E-2,-1.5788754E-2,-3.9909254E-3,-4.4614896E-2,-1.5080774E-2,-4.960942E-2,-1.1165628E-2,-3.9306972E-2,-1.03532765E-2,1.4443676E-2,-1.1367842E-2,-7.165263E-2],"split_indices":[20,17,0,3,0,0,1,0,0,1,27,12,1,0,5,6,0,7,1,0,0,0,0,1,3,0,0,4,0,0,1,0,0,0,0,0,0,1,1,1,28,1,4,1,3,3,0,9,0,1,1,1,28,11,5,0,0,0,0,0,0,0,0,0,0,0,0,0,0,0,0,0,0,0,0,0,0,0,0,0,0,0,0,0,0,0,0,0,0,0,0,0,0,0,0,0,0,0,0,0,0],"split_type":[0,0,0,0,0,0,0,0,0,0,0,0,0,0,0,0,0,0,0,0,0,0,0,0,0,0,0,0,0,0,0,0,0,0,0,0,0,0,0,0,0,0,0,0,0,0,0,0,0,0,0,0,0,0,0,0,0,0,0,0,0,0,0,0,0,0,0,0,0,0,0,0,0,0,0,0,0,0,0,0,0,0,0,0,0,0,0,0,0,0,0,0,0,0,0,0,0,0,0,0,0],"sum_hessian":[1.275E3,7.13E2,5.62E2,8.7E1,6.26E2,4.45E2,1.17E2,2.6E1,6.1E1,5.2E2,1.06E2,5.7E1,3.88E2,4.5E1,7.2E1,2.3E1,3E0,1.5E1,4.6E1,4.11E2,1.09E2,2.3E1,8.3E1,5E0,5.2E1,1.68E2,2.2E2,4.1E1,4E0,2E1,5.2E1,1.5E1,8E0,1.1E1,4E0,3.8E1,8E0,1.41E2,2.7E2,8.7E1,2.2E1,1.4E1,9E0,7.1E1,1.2E1,3E0,2E0,2.5E1,2.7E1,6.9E1,9.9E1,1.15E2,1.05E2,2.5E1,1.6E1,3.2E1,2E1,6E0,2E0,4E0,7E0,1E0,3E0,3.1E1,7E0,4.1E1,1E2,1.03E2,1.67E2,6.1E1,2.6E1,8E0,1.4E1,5E0,9E0,2E0,7E0,6.6E1,5E0,2E0,1E1,1E0,2E0,2.2E1,3E0,2.1E1,6E0,5.2E1,1.7E1,1.2E1,8.7E1,8.7E1,2.8E1,2.6E1,7.9E1,1.4E1,1.1E1,7E0,9E0,1.2E1,2E1],"tree_param":{"num_deleted":"0","num_feature":"30","num_nodes":"101","size_leaf_vector":"1"}},{"base_weights":[1.1238883E-3,-3.6498386E-1,2.8784332E-1,3.2991943E-1,-4.0961584E-1,-7.1638477E-1,3.532538E-1,8.993458E-2,4.468709E-1,-1.7272362E-1,-5.599947E-1,-8.5586464E-1,-2.531597E-1,4.3212467E-1,5.4226205E-2,1.5765189E-1,-1.5566829E-2,2.8916603E-2,2.081381E-1,-3.0599236E-1,7.1683586E-2,-6.3099027E-1,3.2579962E-2,-9.07803E-3,-4.33883E-2,-1.683641E-2,-2.4409094E-3,5.0187784E-1,2.2653787E-1,1.0968463E-1,-1.079142E-1,2.2157465E-1,-3.7320636E-3,-0E0,1.4580871E-2,-2.3065996E-1,-5.874413E-1,-2.1636245E-1,3.1826717E-1,-5.522368E-1,-8.880768E-1,2.6558822E-1,-1.2322475E-1,3.0616438E-2,4.7292706E-1,2.7023154E-1,-2.5784353E-2,1.58912E-1,-1.1232274E-1,7.6113805E-2,-2.5651237E-1,4.4480534E-3,1.5819801E-2,-1.0279383E-3,-1.3522814E-2,-0E0,-3.299231E-2,-8.054481E-4,-1.5165371E-2,6.4558745E-3,2.2135084E-2,-3.0542582E-2,-1.0993916E-2,-5.703355E-2,-2.3395613E-2,4.5314985E-3,2.4812697E-2,-1.0134537E-2,8.3748875E-3,2.0887597E-2,2.868641E-2,1.1170443E-2,1.9370457E-2,9.578501E-3,6.040802E-4,7.4678083E-4,-8.120229E-3,1.3808774E-2,-4.0773447E-3,-0E0,-1.6005378E-2],"categories":[],"categories_nodes":[],"categories_segments":[],"categories_sizes":[],"default_left":[0,0,0,0,0,0,0,0,0,0,0,0,0,0,0,0,0,0,0,0,0,0,0,0,0,0,0,0,0,0,0,0,0,0,0,0,0,0,0,0,0,0,0,0,0,0,0,0,0,0,0,0,0,0,0,0,0,0,0,0,0,0,0,0,0,0,0,0,0,0,0,0,0,0,0,0,0,0,0,0,0],"id":3,"left_children":[1,3,5,7,9,11,13,15,17,19,21,23,25,27,29,31,-1,-1,33,35,37,39,41,-1,-1,-1,-1,43,45,47,49,51,-1,-1,-1,53,55,57,59,61,63,65,67,-1,69,71,-1,73,75,77,79,-1,-1,-1,-1,-1,-1,-1,-1,-1,-1,-1,-1,-1,-1,-1,-1,-1,-1,-1,-1,-1,-1,-1,-1,-1,-1,-1,-1,-1,-1],"loss_changes":[1.3697849E2,1.791465E1,4.8299683E1,8.884609E-1,1.903112E1,2.5799026E0,1.6154106E1,3.869634E-1,5.228143E-1,6.9180245E0,1.3921478E1,1.0368347E-2,1.4992505E-1,7.614601E0,1.3158612E0,2.0941782E-1,0E0,0E0,1.6207033E-1,2.687395E0,5.4061084E0,5.318001E0,1.3538996E0,0E0,0E0,0E0,0E0,8.969345E-1,4.6550865E0,1.2137518E0,1.0493745E0,5.706346E-2,0E0,0E0,0E0,8.850765E-1,1.2224789E0,5.725585E-1,8.5066366E-1,4.2243195E0,6.416195E0,5.016892E-1,5.457257E-1,0E0,1.474289E0,5.8208084E-1,0E0,4.088874E-1,1.446391E-1,5.781957E-1,3.6019945E-1,0E0,0E0,0E0,0E0,0E0,0E0,0E0,0E0,0E0,0E0,0E0,0E0,0E0,0E0,0E0,0E0,0E0,0E0,0E0,0E0,0E0,0E0,0E0,0E0,0E0,0E0,0E0,0E0,0E0,0E0],"parents":[2147483647,0,0,1,1,2,2,3,3,4,4,5,5,6,6,7,7,8,8,9,9,10,10,11,11,12,12,13,13,14,14,15,15,18,18,19,19,20,20,21,21,22,22,27,27,28,28,29,29,30,30,31,31,35,35,36,36,37,37,38,38,39,39,40,40,41,41,42,42,44,44,45,45,47,47,48,48,49,49,50,50],"right_children":[2,4,6,8,10,12,14,16,18,20,22,24,26,28,30,32,-1,-1,34,36,38,40,42,-1,-1,-1,-1,44,46,48,50,52,-1,-1,-1,54,56,58,60,62,64,66,68,-1,70,72,-1,74,76,78,80,-1,-1,-1,-1,-1,-1,-1,-1,-1,-1,-1,-1,-1,-1,-1,-1,-1,-1,-1,-1,-1,-1,-1,-1,-1,-1,-1,-1,-1,-1],"split_conditions":[-2.4060592E-1,-1.4861774E0,-1.4094532E0,9.0505606E-1,1.3043962E-1,1.0538104E0,1.290026E-1,-2.5275697E-3,4.7309914E0,-7.336149E-1,1.6896703E0,-1.6391554E0,1.290026E-1,1.3201615E-1,8.7505955E-1,1.290026E-1,-1.5566829E-2,2.8916603E-2,-6.633271E-1,2.1956827E-1,-2.8965524E-1,2.1429946E0,7.758024E-1,-9.07803E-3,-4.33883E-2,-1.683641E-2,-2.4409094E-3,-5.7856274E-1,7.529079E-1,5.2361816E-1,1.0830323E0,-6.633271E-1,-3.7320636E-3,-0E0,1.4580871E-2,-3.0366477E-2,-6.633271E-1,-4.637769E-1,-1.1737864E-1,9.625575E-1,1.0830323E0,1.290026E-1,-1.3520277E0,3.0616438E-2,4.3568325E-1,-3.9448217E-1,-2.5784353E-2,1.7298319E0,-5.0922114E-1,6.892538E-1,-1.3520277E0,4.4480534E-3,1.5819801E-2,-1.0279383E-3,-1.3522814E-2,-0E0,-3.299231E-2,-8.054481E-4,-1.5165371E-2,6.4558745E-3,2.2135084E-2,-3.0542582E-2,-1.0993916E-2,-5.703355E-2,-2.3395613E-2,4.5314985E-3,2.4812697E-2,-1.0134537E-2,8.3748875E-3,2.0887597E-2,2.868641E-2,1.1170443E-2,1.9370457E-2,9.578501E-3,6.040802E-4,7.4678083E-4,-8.120229E-3,1.3808774E-2,-4.0773447E-3,-0E0,-1.6005378E-2],"split_indices":[17,5,3,9,7,20,1,3,9,4,24,3,1,28,28,1,0,0,1,15,3,27,1,0,0,0,0,15,14,15,1,1,0,0,0,7,1,4,3,27,1,1,3,0,4,14,0,1,14,5,3,0,0,0,0,0,0,0,0,0,0,0,0,0,0,0,0,0,0,0,0,0,0,0,0,0,0,0,0,0,0],"split_type":[0,0,0,0,0,0,0,0,0,0,0,0,0,0,0,0,0,0,0,0,0,0,0,0,0,0,0,0,0,0,0,0,0,0,0,0,0,0,0,0,0,0,0,0,0,0,0,0,0,0,0,0,0,0,0,0,0,0,0,0,0,0,0,0,0,0,0,0,0,0,0,0,0,0,0,0,0,0,0,0,0],"sum_hessian":[1.303E3,5.72E2,7.31E2,3.4E1,5.38E2,4.4E1,6.87E2,1.2E1,2.2E1,2.1E2,3.28E2,3.3E1,1.1E1,5.43E2,1.44E2,1.1E1,1E0,1.3E1,9E0,1.36E2,7.4E1,2.93E2,3.5E1,1E0,3.2E1,7E0,4E0,4.04E2,1.39E2,1.08E2,3.6E1,9E0,2E0,3E0,6E0,1.09E2,2.7E1,3.4E1,4E1,2.27E2,6.6E1,1.4E1,2.1E1,7.9E1,3.25E2,1.32E2,7E0,8.9E1,1.9E1,1.6E1,2E1,5E0,4E0,1.8E1,9.1E1,3E0,2.4E1,1.1E1,2.3E1,1.7E1,2.3E1,1.92E2,3.5E1,4E1,2.6E1,9E0,5E0,1.7E1,4E0,2.14E2,1.11E2,9.7E1,3.5E1,7.2E1,1.7E1,5E0,1.4E1,7E0,9E0,4E0,1.6E1],"tree_param":{"num_deleted":"0","num_feature":"30","num_nodes":"81","size_leaf_vector":"1"}},{"base_weights":[7.253273E-3,-5.741758E-1,2.1045606E-1,-5.747664E-2,-7.356599E-1,3.7327635E-1,-1.498606E-1,2.276671E-1,-2.228004E-1,-6.2746173E-1,-1.2990385E0,4.1865256E-1,-4.7288638E-1,7.6865196E-2,-6.7833346E-1,3.006254E-1,-1.4835921E-2,1.4426617E-1,-3.5141915E-1,-2.1259902E-1,-7.1146905E-1,-9.7841954E-1,-8.8075444E-2,1.9640724E-1,5.233407E-1,-6.829213E-2,-3.39186E-1,4.658681E-1,-5.7208547E-3,-5.7258755E-2,-8.650771E-1,4.8144102E-1,1.1721021E-1,4.3370865E-2,1.8033085E-2,4.862833E-3,-4.326328E-1,-0E0,-2.859935E-1,-5.426506E-1,-9.5921195E-1,-5.5338044E-2,-5.388065E-1,4.089694E-1,7.821875E-2,6.868039E-1,3.5618365E-1,-1.708393E-1,-7.89328E-1,3.1449568E-1,4.1656207E-2,-1.1364103E-1,2.1035469E-1,1.7051263E-1,-1.8158624E-1,-5.195818E-1,-1.1829987E0,2.8551517E-2,5.605375E-3,-7.7031966E-4,9.752958E-3,8.192189E-3,-3.3831925E-3,-6.9865324E-3,2.988314E-3,-2.647484E-2,-9.5241815E-3,-2.9471468E-3,2.3559385E-3,-2.5271494E-2,-4.178842E-3,-3.0207628E-2,5.8317096E-3,-4.373355E-2,-7.166546E-2,-3.6374252E-2,-1.3005123E-2,3.778967E-2,1.2955899E-2,-5.999276E-4,1.8182388E-2,4.5861445E-2,3.097145E-2,-9.010359E-3,2.2803932E-2,-2.084449E-2,1.3773021E-3,-3.185672E-3,-5.0195694E-2,2.8248582E-2,-9.142911E-3,1.3953613E-2,-8.318756E-3,1.5790265E-2,-2.3784358E-2,-2.345467E-2,2.3928177E-2,-1.527658E-2,-0E0,-2.8891979E-2,2.568795E-3,-1.9007849E-2,-6.2163014E-2],"categories":[],"categories_nodes":[],"categories_segments":[],"categories_sizes":[],"default_left":[0,0,0,0,0,0,0,0,0,0,0,0,0,0,0,0,0,0,0,0,0,0,0,0,0,0,0,0,0,0,0,0,0,0,0,0,0,0,0,0,0,0,0,0,0,0,0,0,0,0,0,0,0,0,0,0,0,0,0,0,0,0,0,0,0,0,0,0,0,0,0,0,0,0,0,0,0,0,0,0,0,0,0,0,0,0,0,0,0,0,0,0,0,0,0,0,0,0,0,0,0,0,0],"id":4,"left_children":[1,3,5,7,9,11,13,15,17,19,21,23,25,27,29,31,-1,33,35,37,39,41,-1,43,45,-1,47,49,51,53,55,57,59,61,-1,63,65,67,69,71,73,-1,75,77,79,81,83,85,87,89,-1,91,93,95,97,99,101,-1,-1,-1,-1,-1,-1,-1,-1,-1,-1,-1,-1,-1,-1,-1,-1,-1,-1,-1,-1,-1,-1,-1,-1,-1,-1,-1,-1,-1,-1,-1,-1,-1,-1,-1,-1,-1,-1,-1,-1,-1,-1,-1,-1,-1,-1],"loss_changes":[1.5284982E2,2.7830368E1,5.633981E1,3.8686614E0,1.4536179E1,2.5572083E1,3.5938E1,1.2373408E0,2.526419E0,7.2842636E0,3.9335861E0,1.4436569E1,3.425434E0,6.795184E0,1.0296589E1,7.7914214E-1,0E0,2.4962062E-1,1.1733441E0,5.726466E-1,6.8157196E0,7.0604897E-1,0E0,5.0191402E0,1.1291107E1,0E0,2.1183126E0,1.6801443E0,4.071724E0,6.550715E-1,6.7940674E0,2.9781795E-1,1.7583135E-1,1.6784772E-1,0E0,6.386419E-2,5.7771873E-1,3.416669E-2,1.142549E0,4.5388756E0,1.3612595E0,0E0,1.3270426E-1,3.4446564E0,3.4386122E0,2.600502E0,1.1522902E1,1.2219255E0,1.0749283E0,3.629626E0,0E0,2.458158E0,4.33016E0,1.8016876E0,3.4554255E-1,1.2465286E0,1.0583382E0,0E0,0E0,0E0,0E0,0E0,0E0,0E0,0E0,0E0,0E0,0E0,0E0,0E0,0E0,0E0,0E0,0E0,0E0,0E0,0E0,0E0,0E0,0E0,0E0,0E0,0E0,0E0,0E0,0E0,0E0,0E0,0E0,0E0,0E0,0E0,0E0,0E0,0E0,0E0,0E0,0E0,0E0,0E0,0E0,0E0,0E0],"parents":[2147483647,0,0,1,1,2,2,3,3,4,4,5,5,6,6,7,7,8,8,9,9,10,10,11,11,12,12,13,13,14,14,15,15,17,17,18,18,19,19,20,20,21,21,23,23,24,24,26,26,27,27,28,28,29,29,30,30,31,31,32,32,33,33,35,35,36,36,37,37,38,38,39,39,40,40,42,42,43,43,44,44,45,45,46,46,47,47,48,48,49,49,51,51,52,52,53,53,54,54,55,55,56,56],"right_children":[2,4,6,8,10,12,14,16,18,20,22,24,26,28,30,32,-1,34,36,38,40,42,-1,44,46,-1,48,50,52,54,56,58,60,62,-1,64,66,68,70,72,74,-1,76,78,80,82,84,86,88,90,-1,92,94,96,98,100,102,-1,-1,-1,-1,-1,-1,-1,-1,-1,-1,-1,-1,-1,-1,-1,-1,-1,-1,-1,-1,-1,-1,-1,-1,-1,-1,-1,-1,-1,-1,-1,-1,-1,-1,-1,-1,-1,-1,-1,-1,-1,-1,-1,-1,-1,-1],"split_conditions":[-5.013588E-1,-4.6438822E-1,4.5394018E-1,-8.183386E-1,1.2982177E0,2.292134E0,2.1133515E-1,1.4931985E0,1.017199E-2,1.2110607E-2,5.331082E-1,-3.138874E-1,3.3295643E-1,-6.4672625E-1,-1.3457512E0,-3.790361E-1,-1.4835921E-2,1.2723193E0,-6.187553E-1,-3.643463E-2,5.1165664E-1,3.8717227E0,-8.8075444E-2,-1.0435797E0,-3.2495323E-1,-6.829213E-2,3.3432593E0,2.1707933E-1,-2.5293168E-1,7.583493E-1,7.1544623E-1,-2.6249737E-1,4.1742163E0,-6.038232E-1,1.8033085E-2,-1.1039199E0,-2.2189845E-1,-2.9277593E-1,4.1512474E-1,4.4730204E-1,2.1312475E0,-5.5338044E-2,-4.3221092E-1,-1.4439604E-1,1.9129338E0,-7.4565303E-1,-1.1585627E0,2.30286E0,6.805878E-1,-7.3253244E-1,4.1656207E-2,-7.685939E-1,8.0097073E-1,2.8641555E-1,1.1122997E0,2.9517977E0,-1.4299355E0,2.8551517E-2,5.605375E-3,-7.7031966E-4,9.752958E-3,8.192189E-3,-3.3831925E-3,-6.9865324E-3,2.988314E-3,-2.647484E-2,-9.5241815E-3,-2.9471468E-3,2.3559385E-3,-2.5271494E-2,-4.178842E-3,-3.0207628E-2,5.8317096E-3,-4.373355E-2,-7.166546E-2,-3.6374252E-2,-1.3005123E-2,3.778967E-2,1.2955899E-2,-5.999276E-4,1.8182388E-2,4.5861445E-2,3.097145E-2,-9.010359E-3,2.2803932E-2,-2.084449E-2,1.3773021E-3,-3.185672E-3,-5.0195694E-2,2.8248582E-2,-9.142911E-3,1.3953613E-2,-8.318756E-3,1.5790265E-2,-2.3784358E-2,-2.345467E-2,2.3928177E-2,-1.527658E-2,-0E0,-2.8891979E-2,2.568795E-3,-1.9007849E-2,-6.2163014E-2],"split_indices":[2,0,20,0,22,0,0,6,22,7,0,23,2,0,6,23,0,3,10,7,0,14,0,0,0,0,0,2,10,0,0,5,14,0,0,2,17,0,0,0,0,0,0,17,5,14,27,0,2,0,0,15,7,0,0,9,8,0,0,0,0,0,0,0,0,0,0,0,0,0,0,0,0,0,0,0,0,0,0,0,0,0,0,0,0,0,0,0,0,0,0,0,0,0,0,0,0,0,0,0,0,0,0],"split_type":[0,0,0,0,0,0,0,0,0,0,0,0,0,0,0,0,0,0,0,0,0,0,0,0,0,0,0,0,0,0,0,0,0,0,0,0,0,0,0,0,0,0,0,0,0,0,0,0,0,0,0,0,0,0,0,0,0,0,0,0,0,0,0,0,0,0,0,0,0,0,0,0,0,0,0,0,0,0,0,0,0,0,0,0,0,0,0,0,0,0,0,0,0,0,0,0,0,0,0,0,0,0,0],"sum_hessian":[1.292E3,3.34E2,9.58E2,8E1,2.54E2,6.6E2,2.98E2,2.9E1,5.1E1,2.15E2,3.9E1,6.27E2,3.3E1,2.09E2,8.9E1,2.6E1,3E0,1.3E1,3.8E1,3.7E1,1.78E2,2.5E1,1.4E1,2.02E2,4.25E2,3E0,3E1,3.6E1,1.73E2,2.1E1,6.8E1,1.2E1,1.4E1,1E1,3E0,7E0,3.1E1,1E1,2.7E1,1.08E2,7E1,1.8E1,7E0,7.1E1,1.31E2,2.13E2,2.12E2,2.3E1,7E0,2.7E1,9E0,1.16E2,5.7E1,7E0,1.4E1,3.4E1,3.4E1,9E0,3E0,5E0,9E0,5E0,5E0,1E0,6E0,2.1E1,1E1,5E0,5E0,1.2E1,1.5E1,9.9E1,9E0,6.2E1,8E0,3E0,4E0,2E1,5.1E1,1E2,3.1E1,4.5E1,1.68E2,3.3E1,1.79E2,1E1,1.3E1,2E0,5E0,1.8E1,9E0,1.3E1,1.03E2,5E1,7E0,2E0,5E0,8E0,6E0,3.1E1,3E0,3E0,3.1E1],"tree_param":{"num_deleted":"0","num_feature":"30","num_nodes":"103","size_leaf_vector":"1"}},{"base_weights":[8.192458E-3,-5.6448036E-1,2.0971726E-1,-1.0597353E-1,-7.0719635E-1,5.500512E-1,2.4031261E-2,-5.9182793E-2,-6.503328E-2,-6.46806E-1,-1.533598E0,1.2194769E0,3.8396847E-1,2.7717993E-1,-2.92584E-1,1.3839816E-1,-2.7807504E-1,-4.4888544E-1,-9.255149E-1,-1.7961567E-2,-7.8914694E-2,6.517591E-2,4.738011E-2,5.335695E-1,4.2608332E-2,3.7072766E-1,-4.219648E-1,-1.5828879E-1,-1.1481035E0,3.0269113E-1,5.378149E-2,-1.7692737E-2,-6.081173E-1,-1.1235386E0,-3.9028198E-1,-4.7225466E-1,-1.2014003E0,8.998957E-1,2.4208975E-1,-1.2570262E-1,2.611512E-1,6.572589E-1,7.1836755E-2,-1.2386509E0,-2.486657E-1,-5.4511275E-2,-1.00937925E-1,-8.6284506E-1,-7.400781E-2,6.251957E-3,3.4528073E-2,-4.5467555E-3,6.244752E-3,2.1650469E-2,-4.2999075E-3,-3.4261398E-2,-8.060037E-3,-2.4983337E-2,-6.412661E-2,2.725238E-2,-2.11756E-2,-4.49908E-3,-4.42384E-2,-5.3475857E-2,-8.851206E-2,2.019715E-2,5.0379783E-2,1.5808824E-2,-3.0255785E-2,1.5029927E-4,-2.8984828E-2,3.2737106E-2,6.551777E-3,5.787704E-2,1.976272E-2,2.7555484E-2,-3.6458354E-3,-3.05932E-2,-7.6538764E-2,3.4903698E-3,-3.5292428E-2,4.192296E-3,-1.6912458E-2,-1.1173974E-2,-5.61175E-2],"categories":[],"categories_nodes":[],"categories_segments":[],"categories_sizes":[],"default_left":[0,0,0,0,0,0,0,0,0,0,0,0,0,0,0,0,0,0,0,0,0,0,0,0,0,0,0,0,0,0,0,0,0,0,0,0,0,0,0,0,0,0,0,0,0,0,0,0,0,0,0,0,0,0,0,0,0,0,0,0,0,0,0,0,0,0,0,0,0,0,0,0,0,0,0,0,0,0,0,0,0,0,0,0,0],"id":5,"left_children":[1,3,5,7,9,11,13,15,-1,17,19,21,23,25,27,29,31,33,35,-1,-1,-1,-1,37,39,41,43,45,47,49,51,53,55,57,59,61,63,65,67,69,71,73,75,77,79,-1,81,83,-1,-1,-1,-1,-1,-1,-1,-1,-1,-1,-1,-1,-1,-1,-1,-1,-1,-1,-1,-1,-1,-1,-1,-1,-1,-1,-1,-1,-1,-1,-1,-1,-1,-1,-1,-1,-1],"loss_changes":[1.5253659E2,2.235382E1,6.173432E1,4.426781E0,1.186557E1,3.7728546E1,5.089512E1,3.5556169E0,0E0,1.3017021E1,1.315918E-1,9.337616E-2,1.4116505E1,2.3238716E1,3.208722E1,5.458564E-1,3.2782092E0,5.1825256E0,1.1895111E1,0E0,0E0,0E0,0E0,2.0275848E1,3.209724E0,2.6600056E1,5.4875593E0,1.2865446E1,2.087944E0,7.967757E-1,3.2349265E-1,7.1060085E-1,3.9075184E-1,2.720499E-1,4.4457016E0,6.130621E0,2.4739914E0,3.992035E0,7.0039973E0,2.9226246E0,1.781697E0,2.0228302E1,1.0771972E1,1.3080692E-1,5.3544936E0,0E0,1.0227298E1,3.4307194E0,0E0,0E0,0E0,0E0,0E0,0E0,0E0,0E0,0E0,0E0,0E0,0E0,0E0,0E0,0E0,0E0,0E0,0E0,0E0,0E0,0E0,0E0,0E0,0E0,0E0,0E0,0E0,0E0,0E0,0E0,0E0,0E0,0E0,0E0,0E0,0E0,0E0],"parents":[2147483647,0,0,1,1,2,2,3,3,4,4,5,5,6,6,7,7,9,9,10,10,11,11,12,12,13,13,14,14,15,15,16,16,17,17,18,18,23,23,24,24,25,25,26,26,27,27,28,28,29,29,30,30,31,31,32,32,33,33,34,34,35,35,36,36,37,37,38,38,39,39,40,40,41,41,42,42,43,43,44,44,46,46,47,47],"right_children":[2,4,6,8,10,12,14,16,-1,18,20,22,24,26,28,30,32,34,36,-1,-1,-1,-1,38,40,42,44,46,48,50,52,54,56,58,60,62,64,66,68,70,72,74,76,78,80,-1,82,84,-1,-1,-1,-1,-1,-1,-1,-1,-1,-1,-1,-1,-1,-1,-1,-1,-1,-1,-1,-1,-1,-1,-1,-1,-1,-1,-1,-1,-1,-1,-1,-1,-1,-1,-1,-1,-1],"split_conditions":[-5.1294655E-1,-4.6438822E-1,-6.4672625E-1,1.7945119E0,1.0830323E0,-6.633271E-1,1.12832606E-1,-6.789036E-1,-6.503328E-2,5.652855E-1,-2.4480944E0,1.3201615E-1,-9.148705E-1,2.292134E0,7.1544623E-1,-9.792251E-1,1.0830323E0,-2.5691035E-1,-8.120732E-2,-1.7961567E-2,-7.8914694E-2,6.517591E-2,4.738011E-2,9.213323E-1,-8.8799514E-2,-8.89707E-1,-1.2803466E0,-7.190903E-1,1.290026E-1,4.5687672E-1,1.7291671E-1,1.290026E-1,-1.0399283E-1,1.290026E-1,-6.633271E-1,1.6378623E0,1.3962821E0,-1.3177439E0,-9.684993E-1,1.290026E-1,-7.9418314E-1,2.0060939E-1,-3.035017E-1,1.3351433E0,3.3325336E0,-5.4511275E-2,6.141024E-1,1.2410089E0,-7.400781E-2,6.251957E-3,3.4528073E-2,-4.5467555E-3,6.244752E-3,2.1650469E-2,-4.2999075E-3,-3.4261398E-2,-8.060037E-3,-2.4983337E-2,-6.412661E-2,2.725238E-2,-2.11756E-2,-4.49908E-3,-4.42384E-2,-5.3475857E-2,-8.851206E-2,2.019715E-2,5.0379783E-2,1.5808824E-2,-3.0255785E-2,1.5029927E-4,-2.8984828E-2,3.2737106E-2,6.551777E-3,5.787704E-2,1.976272E-2,2.7555484E-2,-3.6458354E-3,-3.05932E-2,-7.6538764E-2,3.4903698E-3,-3.5292428E-2,4.192296E-3,-1.6912458E-2,-1.1173974E-2,-5.61175E-2],"split_indices":[2,0,0,1,1,1,1,0,0,0,2,28,0,0,0,0,1,12,1,0,0,0,0,1,20,1,8,27,1,3,7,1,4,1,1,0,28,8,0,1,8,0,0,4,0,0,1,0,0,0,0,0,0,0,0,0,0,0,0,0,0,0,0,0,0,0,0,0,0,0,0,0,0,0,0,0,0,0,0,0,0,0,0,0,0],"split_type":[0,0,0,0,0,0,0,0,0,0,0,0,0,0,0,0,0,0,0,0,0,0,0,0,0,0,0,0,0,0,0,0,0,0,0,0,0,0,0,0,0,0,0,0,0,0,0,0,0,0,0,0,0,0,0,0,0,0,0,0,0,0,0,0,0,0,0,0,0,0,0,0,0,0,0,0,0,0,0,0,0,0,0,0,0],"sum_hessian":[1.32E3,3.43E2,9.77E2,8.2E1,2.61E2,3.44E2,6.33E2,8E1,2E0,2.45E2,1.6E1,6.7E1,2.77E2,3.52E2,2.81E2,4.2E1,3.8E1,1.45E2,1E2,1E0,1.5E1,4.8E1,1.9E1,1.92E2,8.5E1,3.11E2,4.1E1,2.44E2,3.7E1,1.3E1,2.9E1,2.2E1,1.6E1,1E1,1.35E2,3.9E1,6.1E1,8.4E1,1.08E2,4.8E1,3.7E1,1.58E2,1.53E2,6E0,3.5E1,1.3E1,2.31E2,2.2E1,1.5E1,1E1,3E0,9E0,2E1,2E0,2E1,1.3E1,3E0,3E0,7E0,4E0,1.31E2,2.1E1,1.8E1,5.2E1,9E0,1.6E1,6.8E1,1E2,8E0,3.8E1,1E1,8E0,2.9E1,5.3E1,1.05E2,3.5E1,1.18E2,3E0,3E0,2.1E1,1.4E1,1.3E2,1.01E2,7E0,1.5E1],"tree_param":{"num_deleted":"0","num_feature":"30","num_nodes":"85","size_leaf_vector":"1"}},{"base_weights":[-9.00281E-4,-5.323957E-1,1.9257164E-1,-3.8658418E-2,-6.6163087E-1,4.8180297E-1,1.259228E-3,1.1969941E-2,-6.28655E-2,-5.966441E-1,-1.4113934E0,1.0514535E0,3.250127E-1,4.34426E-1,-2.1450086E-1,1.9979663E-1,-2.8004235E-1,-3.9432514E-1,-8.655723E-1,-5.0605483E-2,-9.6060805E-2,1.2270364E0,8.477864E-1,5.37838E-1,9.9072464E-2,1.0697793E0,2.0694648E-1,-7.747039E-2,-5.362879E-1,3.7632966E-1,7.100437E-2,-4.0520534E-1,1.8102318E-2,-1.9117795E-1,-5.802761E-1,-3.9773783E-1,-1.2315441E0,6.583496E-2,7.50824E-1,4.983614E-2,5.1651525E-1,6.8665427E-1,-1.18709505E-1,-2.821164E-1,2.5668833E-1,1.1718295E0,4.6356988E-1,2.836409E-1,-7.231087E-1,1.8362006E-2,-5.231611E-1,-3.8958162E-1,-1.4719106E0,3.1982467E-2,7.076088E-3,-1.1001351E-2,5.3543984E-3,-0E0,-2.1523803E-2,8.368917E-3,-3.3882707E-3,-3.5652827E-2,-3.120357E-3,-1.4516855E-2,-5.0591897E-2,-4.472447E-3,-4.176421E-2,-7.6008044E-2,-5.041728E-2,5.3688504E-2,1.28856525E-2,2.697576E-2,2.3629104E-3,4.383133E-2,2.4516357E-2,1.810138E-2,-2.1908073E-2,7.691783E-3,-2.397451E-2,2.3615297E-2,1.503242E-3,7.37841E-2,4.8181444E-2,4.9626365E-2,7.818192E-3,3.3113424E-2,4.283247E-3,-1.9030673E-3,-4.300007E-2,-1.8168442E-2,8.248023E-3,-4.216527E-2,-5.096567E-3,-4.2242726E-4,-3.157395E-2,-7.604923E-2,-1.7121866E-2],"categories":[],"categories_nodes":[],"categories_segments":[],"categories_sizes":[],"default_left":[0,0,0,0,0,0,0,0,0,0,0,0,0,0,0,0,0,0,0,0,0,0,0,0,0,0,0,0,0,0,0,0,0,0,0,0,0,0,0,0,0,0,0,0,0,0,0,0,0,0,0,0,0,0,0,0,0,0,0,0,0,0,0,0,0,0,0,0,0,0,0,0,0,0,0,0,0,0,0,0,0,0,0,0,0,0,0,0,0,0,0,0,0,0,0,0,0],"id":6,"left_children":[1,3,5,7,9,11,13,15,-1,17,19,21,23,25,27,29,31,33,35,-1,-1,37,39,41,43,45,47,49,51,53,55,57,59,61,63,65,67,-1,69,-1,71,73,75,77,79,81,83,85,87,89,91,93,95,-1,-1,-1,-1,-1,-1,-1,-1,-1,-1,-1,-1,-1,-1,-1,-1,-1,-1,-1,-1,-1,-1,-1,-1,-1,-1,-1,-1,-1,-1,-1,-1,-1,-1,-1,-1,-1,-1,-1,-1,-1,-1,-1,-1],"loss_changes":[1.3330064E2,2.1982033E1,5.251796E1,4.6435623E0,1.2307655E1,3.328193E1,5.3667816E1,3.9421139E0,0E0,1.3352638E1,2.0370293E0,1.6488495E0,1.4212591E1,2.7256142E1,1.678532E1,9.289334E-1,1.0909123E0,5.3649025E0,1.7838387E1,0E0,0E0,5.552788E-1,1.3567238E0,1.5087162E1,8.84176E0,2.3864288E0,1.0290019E1,1.1592221E1,1.4888256E1,9.4429016E-1,2.9580766E-1,2.3705602E-1,1.3666572E-1,4.71655E0,9.085632E0,6.442455E0,2.0794296E0,0E0,1.0233612E0,0E0,7.7718735E-2,4.095562E0,4.6198397E0,3.8062844E0,5.0174212E0,9.910698E-1,1.1924056E0,9.763082E0,9.0901756E-1,1.2519437E1,6.2925234E0,9.150183E0,1.24233246E-1,0E0,0E0,0E0,0E0,0E0,0E0,0E0,0E0,0E0,0E0,0E0,0E0,0E0,0E0,0E0,0E0,0E0,0E0,0E0,0E0,0E0,0E0,0E0,0E0,0E0,0E0,0E0,0E0,0E0,0E0,0E0,0E0,0E0,0E0,0E0,0E0,0E0,0E0,0E0,0E0,0E0,0E0,0E0,0E0],"parents":[2147483647,0,0,1,1,2,2,3,3,4,4,5,5,6,6,7,7,9,9,10,10,11,11,12,12,13,13,14,14,15,15,16,16,17,17,18,18,21,21,22,22,23,23,24,24,25,25,26,26,27,27,28,28,29,29,30,30,31,31,32,32,33,33,34,34,35,35,36,36,38,38,40,40,41,41,42,42,43,43,44,44,45,45,46,46,47,47,48,48,49,49,50,50,51,51,52,52],"right_children":[2,4,6,8,10,12,14,16,-1,18,20,22,24,26,28,30,32,34,36,-1,-1,38,40,42,44,46,48,50,52,54,56,58,60,62,64,66,68,-1,70,-1,72,74,76,78,80,82,84,86,88,90,92,94,96,-1,-1,-1,-1,-1,-1,-1,-1,-1,-1,-1,-1,-1,-1,-1,-1,-1,-1,-1,-1,-1,-1,-1,-1,-1,-1,-1,-1,-1,-1,-1,-1,-1,-1,-1,-1,-1,-1,-1,-1,-1,-1,-1,-1],"split_conditions":[-5.013588E-1,-5.716459E-1,-5.394686E-1,1.7945119E0,1.0830323E0,-6.633271E-1,-8.89707E-1,-6.789036E-1,-6.28655E-2,5.331082E-1,-2.6059863E-1,-7.53984E-1,-1.0435797E0,2.0060939E-1,5.4942244E-1,-9.5777357E-1,2.5293845E-1,5.1708245E-1,-8.120732E-2,-5.0605483E-2,-9.6060805E-2,1.4250894E0,1.3201615E-1,1.7298319E0,-3.6320788E-1,1.4250894E0,3.3325336E0,8.8705856E-1,4.0439898E-1,-3.790361E-1,-9.3606156E-1,5.1708245E-1,-6.038232E-1,-1.723021E0,-1.1223255E0,1.6378623E0,-1.1462662E0,6.583496E-2,-1.0435797E0,4.983614E-2,6.805878E-1,1.290026E-1,-1.4297073E0,-7.8821206E-1,9.213323E-1,-2.2842133E-1,-1.9084166E0,-1.9084166E0,6.805878E-1,-6.108434E-1,6.614032E-1,7.71804E-1,1.123235E-1,3.1982467E-2,7.076088E-3,-1.1001351E-2,5.3543984E-3,-0E0,-2.1523803E-2,8.368917E-3,-3.3882707E-3,-3.5652827E-2,-3.120357E-3,-1.4516855E-2,-5.0591897E-2,-4.472447E-3,-4.176421E-2,-7.6008044E-2,-5.041728E-2,5.3688504E-2,1.28856525E-2,2.697576E-2,2.3629104E-3,4.383133E-2,2.4516357E-2,1.810138E-2,-2.1908073E-2,7.691783E-3,-2.397451E-2,2.3615297E-2,1.503242E-3,7.37841E-2,4.8181444E-2,4.9626365E-2,7.818192E-3,3.3113424E-2,4.283247E-3,-1.9030673E-3,-4.300007E-2,-1.8168442E-2,8.248023E-3,-4.216527E-2,-5.096567E-3,-4.2242726E-4,-3.157395E-2,-7.604923E-2,-1.7121866E-2],"split_indices":[2,0,0,1,1,1,1,0,0,0,0,0,0,0,1,0,8,1,1,0,0,4,28,1,21,4,0,0,0,23,12,1,0,4,3,0,5,0,0,0,2,1,0,28,1,0,1,1,2,27,7,12,3,0,0,0,0,0,0,0,0,0,0,0,0,0,0,0,0,0,0,0,0,0,0,0,0,0,0,0,0,0,0,0,0,0,0,0,0,0,0,0,0,0,0,0,0],"split_type":[0,0,0,0,0,0,0,0,0,0,0,0,0,0,0,0,0,0,0,0,0,0,0,0,0,0,0,0,0,0,0,0,0,0,0,0,0,0,0,0,0,0,0,0,0,0,0,0,0,0,0,0,0,0,0,0,0,0,0,0,0,0,0,0,0,0,0,0,0,0,0,0,0,0,0,0,0,0,0,0,0,0,0,0,0,0,0,0,0,0,0,0,0,0,0,0,0],"sum_hessian":[1.294E3,3.45E2,9.49E2,7.2E1,2.73E2,3.77E2,5.72E2,7E1,2E0,2.53E2,2E1,8E1,2.97E2,1.9E2,3.82E2,4.3E1,2.7E1,1.46E2,1.07E2,1.3E1,7E0,4E1,4E1,1.52E2,1.45E2,4.9E1,1.41E2,2.69E2,1.13E2,1.7E1,2.6E1,1.9E1,8E0,7.1E1,7.5E1,4.8E1,5.9E1,3.2E1,8E0,2.6E1,1.4E1,1.24E2,2.8E1,4.2E1,1.03E2,4.1E1,8E0,1.31E2,1E1,2.22E2,4.7E1,9.9E1,1.4E1,7E0,1E1,2E0,2.4E1,1E0,1.8E1,3E0,5E0,1.3E1,5.8E1,4.6E1,2.9E1,2.9E1,1.9E1,2.3E1,3.6E1,4E0,4E0,1.3E1,1E0,6.1E1,6.3E1,1.1E1,1.7E1,1.3E1,2.9E1,5.2E1,5.1E1,1.4E1,2.7E1,2E0,6E0,4.4E1,8.7E1,2E0,8E0,6.1E1,1.61E2,2.6E1,2.1E1,3.9E1,6E1,1.3E1,1E0],"tree_param":{"num_deleted":"0","num_feature":"30","num_nodes":"97","size_leaf_vector":"1"}},{"base_weights":[1.0108803E-2,4.6644807E-1,-1.8543808E-1,8.0193365E-1,1.6694908E-1,1.7713025E-1,-4.357206E-1,1.1162163E0,5.982845E-1,3.1454778E-1,-1.7872406E-2,3.4893814E-1,-3.8212186E-1,-2.8387916E-1,-1.0060959E0,4.15052E-2,6.0143538E-2,8.7212247E-1,1.2352588E-1,5.14525E-1,-9.090795E-2,-7.563023E-1,1.5593825E-1,1.3276868E0,2.6196784E-1,-1.1409534E0,-1.10375695E-1,-7.590413E-2,-5.200912E-1,-8.518123E-1,-1.4857441E0,9.5402807E-1,5.678484E-1,2.6160458E-2,4.191355E-2,4.1033115E-2,3.3440015E-1,-3.078886E-1,1.256181E-1,-1.2239671E-3,-3.9601423E-2,4.9796075E-1,5.4766253E-2,1.4946756E-2,6.781574E-2,4.9248376E-1,-5.9306227E-2,-1.5150632E0,-5.8600974E-1,-3.116992E-1,1.8826565E-1,-5.4818E-2,1.587106E-2,-2.778541E-1,-7.356595E-1,-7.021907E-1,-7.92685E-2,-7.806393E-2,-3.2749258E-2,5.4641753E-2,3.3624563E-2,1.5627263E-2,3.654182E-2,6.6588256E-3,-1.963369E-2,9.451438E-3,3.913857E-2,-7.264392E-4,-3.2685705E-2,-0E0,1.3537762E-2,2.643896E-3,3.634176E-2,8.654233E-3,-1.6960729E-2,4.999821E-2,8.286658E-3,-1.0231118E-2,3.751804E-2,-8.907754E-2,-3.561864E-2,-0E0,-5.379337E-2,-5.572173E-3,-3.3424985E-2,2.0976169E-2,-2.5905846E-2,1.0450653E-2,-1.1756942E-2,-6.8975906E-3,-3.557731E-2,-3.26188E-2,-7.7020995E-2,-1.9552229E-2,-5.3147692E-2],"categories":[],"categories_nodes":[],"categories_segments":[],"categories_sizes":[],"default_left":[0,0,0,0,0,0,0,0,0,0,0,0,0,0,0,0,0,0,0,0,0,0,0,0,0,0,0,0,0,0,0,0,0,0,0,0,0,0,0,0,0,0,0,0,0,0,0,0,0,0,0,0,0,0,0,0,0,0,0,0,0,0,0,0,0,0,0,0,0,0,0,0,0,0,0,0,0,0,0,0,0,0,0,0,0,0,0,0,0,0,0,0,0,0,0],"id":7,"left_children":[1,3,5,7,9,11,13,15,17,19,21,23,25,27,29,-1,-1,31,33,35,37,39,41,43,45,47,49,51,53,55,57,59,61,63,-1,-1,65,67,69,-1,-1,71,73,-1,-1,75,77,79,81,83,85,-1,87,89,91,93,-1,-1,-1,-1,-1,-1,-1,-1,-1,-1,-1,-1,-1,-1,-1,-1,-1,-1,-1,-1,-1,-1,-1,-1,-1,-1,-1,-1,-1,-1,-1,-1,-1,-1,-1,-1,-1,-1,-1],"loss_changes":[1.1629951E2,3.9055977E1,8.286203E1,1.093737E1,5.7094054E0,3.5969322E1,4.635295E1,5.584793E-1,1.4613491E1,9.494639E0,1.21142435E1,2.3838135E1,1.7895374E1,2.0926937E1,6.8628845E0,0E0,0E0,1.100441E0,2.88406E0,3.911213E0,1.8892001E0,3.6957455E-1,2.547292E0,1.0640335E-1,1.9624043E1,3.6770763E0,4.0391784E0,2.1571878E1,1.013797E1,8.31654E0,3.8728333E-1,1.2379074E0,4.162469E-1,1.7744026E0,0E0,0E0,3.0790524E0,1.9527041E0,3.441774E-1,0E0,0E0,1.6153526E0,2.8390107E0,0E0,0E0,2.5253914E1,1.3158969E1,1.26227E0,3.1674626E0,2.7055595E0,4.618126E0,0E0,1.0275931E1,5.641645E0,5.8132324E0,7.8576965E0,0E0,0E0,0E0,0E0,0E0,0E0,0E0,0E0,0E0,0E0,0E0,0E0,0E0,0E0,0E0,0E0,0E0,0E0,0E0,0E0,0E0,0E0,0E0,0E0,0E0,0E0,0E0,0E0,0E0,0E0,0E0,0E0,0E0,0E0,0E0,0E0,0E0,0E0,0E0],"parents":[2147483647,0,0,1,1,2,2,3,3,4,4,5,5,6,6,7,7,8,8,9,9,10,10,11,11,12,12,13,13,14,14,17,17,18,18,19,19,20,20,21,21,22,22,23,23,24,24,25,25,26,26,27,27,28,28,29,29,30,30,31,31,32,32,33,33,36,36,37,37,38,38,41,41,42,42,45,45,46,46,47,47,48,48,49,49,50,50,52,52,53,53,54,54,55,55],"right_children":[2,4,6,8,10,12,14,16,18,20,22,24,26,28,30,-1,-1,32,34,36,38,40,42,44,46,48,50,52,54,56,58,60,62,64,-1,-1,66,68,70,-1,-1,72,74,-1,-1,76,78,80,82,84,86,-1,88,90,92,94,-1,-1,-1,-1,-1,-1,-1,-1,-1,-1,-1,-1,-1,-1,-1,-1,-1,-1,-1,-1,-1,-1,-1,-1,-1,-1,-1,-1,-1,-1,-1,-1,-1,-1,-1,-1,-1,-1,-1],"split_conditions":[-6.4672625E-1,1.290026E-1,-6.633271E-1,-6.633271E-1,-9.792251E-1,1.6807654E0,5.331082E-1,-3.7311348E-1,-9.5777357E-1,1.7298319E0,-3.74452E-1,-1.9084166E0,-2.1517722E-1,7.111224E-1,1.290026E-1,4.15052E-2,6.0143538E-2,9.010953E-1,-4.8619324E-1,-1.311724E0,-4.0618882E-1,5.4942244E-1,8.417166E-1,-6.436689E-1,5.652855E-1,-4.1452E-1,1.2331116E0,-7.190903E-1,-3.4640476E-1,2.053594E0,1.3351433E0,-1.1293858E0,4.583919E-1,1.0163902E0,4.191355E-2,4.1033115E-2,-1.0059742E0,-1.3975301E0,3.6222818E-1,-1.2239671E-3,-3.9601423E-2,-3.6573616E-1,-6.789036E-1,1.4946756E-2,6.781574E-2,-8.89707E-1,7.293723E-1,2.3479176E0,2.1312475E0,-1.9084166E0,3.3325336E0,-5.4818E-2,8.262594E-2,1.0830323E0,1.0830323E0,1.1981058E0,-7.92685E-2,-7.806393E-2,-3.2749258E-2,5.4641753E-2,3.3624563E-2,1.5627263E-2,3.654182E-2,6.6588256E-3,-1.963369E-2,9.451438E-3,3.913857E-2,-7.264392E-4,-3.2685705E-2,-0E0,1.3537762E-2,2.643896E-3,3.634176E-2,8.654233E-3,-1.6960729E-2,4.999821E-2,8.286658E-3,-1.0231118E-2,3.751804E-2,-8.907754E-2,-3.561864E-2,-0E0,-5.379337E-2,-5.572173E-3,-3.3424985E-2,2.0976169E-2,-2.5905846E-2,1.0450653E-2,-1.1756942E-2,-6.8975906E-3,-3.557731E-2,-3.26188E-2,-7.7020995E-2,-1.9552229E-2,-5.3147692E-2],"split_indices":[0,1,1,1,0,0,0,23,0,1,20,1,23,1,1,0,0,7,9,0,21,1,12,4,0,13,5,27,0,20,4,0,10,7,0,0,12,0,13,0,0,21,0,0,0,1,10,15,0,1,0,0,0,1,1,0,0,0,0,0,0,0,0,0,0,0,0,0,0,0,0,0,0,0,0,0,0,0,0,0,0,0,0,0,0,0,0,0,0,0,0,0,0,0,0],"split_type":[0,0,0,0,0,0,0,0,0,0,0,0,0,0,0,0,0,0,0,0,0,0,0,0,0,0,0,0,0,0,0,0,0,0,0,0,0,0,0,0,0,0,0,0,0,0,0,0,0,0,0,0,0,0,0,0,0,0,0,0,0,0,0,0,0,0,0,0,0,0,0,0,0,0,0,0,0,0,0,0,0,0,0,0,0,0,0,0,0,0,0,0,0,0,0],"sum_hessian":[1.301E3,3.9E2,9.11E2,1.83E2,2.07E2,3.72E2,5.39E2,7E1,1.13E2,1.15E2,9.2E1,2.85E2,8.7E1,4.27E2,1.12E2,1.9E1,5.1E1,7.1E1,4.2E1,7.7E1,3.8E1,1.7E1,7.5E1,2.2E1,2.63E2,2.2E1,6.5E1,2.28E2,1.99E2,8.7E1,2.5E1,5.4E1,1.7E1,3.8E1,4E0,2.7E1,5E1,1.9E1,1.9E1,1E0,1.6E1,1.6E1,5.9E1,1E0,2.1E1,1.53E2,1.1E2,1.2E1,1E1,3.9E1,2.6E1,1.8E1,2.1E2,9.5E1,1.04E2,7.4E1,1.3E1,2.2E1,3E0,3.4E1,2E1,8E0,9E0,3.1E1,7E0,3.9E1,1.1E1,1.1E1,8E0,1.1E1,8E0,6E0,1E1,4.6E1,1.3E1,5.9E1,9.4E1,9.4E1,1.6E1,8E0,4E0,5E0,5E0,2.6E1,1.3E1,2E1,6E0,1.19E2,9.1E1,7.3E1,2.2E1,9.6E1,8E0,4.1E1,3.3E1],"tree_param":{"num_deleted":"0","num_feature":"30","num_nodes":"95","size_leaf_vector":"1"}},{"base_weights":[-8.876718E-4,-4.7418866E-1,1.6599815E-1,-8.7075774E-4,-6.15796E-1,3.8996407E-1,-4.232831E-2,3.371522E-1,-8.040112E-2,-5.426451E-1,-1.2494378E0,9.717007E-1,2.2216174E-1,8.6489975E-2,-7.161247E-1,5.9586424E-1,8.735931E-2,6.927442E-2,-2.3067057E-1,-4.379411E-1,-8.836354E-1,-9.2251194E-1,-8.0114506E-2,5.7507783E-2,8.1168985E-1,4.3034187E-1,5.8542896E-2,3.3481452E-1,-1.1360993E-1,-5.4098743E-1,-6.2233575E-2,3.0836738E-3,3.289752E-2,1.7530525E-1,-1.1363432E-1,-2.4217186E-2,1.8974549E-1,-4.2336357E-1,2.211861E-2,-2.9255822E-1,-7.498762E-1,-4.5755333E-1,-1.3210487E0,-2.04568E-1,-5.0166022E-2,6.724464E-2,6.9747955E-1,5.859676E-1,-1.5152748E-1,2.2242765E-1,-2.8349707E-1,5.923272E-1,-2.3220158E-1,-6.711919E-1,-1.06324665E-2,-3.167549E-1,-4.280907E-2,9.773455E-3,-0E0,-0E0,-8.533243E-3,2.7976425E-3,-5.5982755E-3,2.053621E-2,3.148006E-3,-2.4904463E-2,-4.7256937E-3,5.987694E-3,-6.38133E-3,3.431771E-3,-1.832015E-2,-2.6154408E-2,-5.6913983E-2,-1.3214049E-2,-5.0647028E-2,-0E0,-6.8623155E-2,-1.5357959E-2,-0E0,3.7649054E-2,-5.2016517E-3,3.9183587E-2,2.090024E-2,1.530795E-2,-2.098182E-2,1.3221298E-2,-2.4029925E-2,-2.6543578E-2,-2.318453E-3,5.8163602E-2,2.1440485E-2,1.3846143E-2,-3.367771E-2,-2.2551538E-2,-4.0988464E-2,5.2028783E-3,-3.410401E-2,-7.413756E-3,-2.7926946E-2],"categories":[],"categories_nodes":[],"categories_segments":[],"categories_sizes":[],"default_left":[0,0,0,0,0,0,0,0,0,0,0,0,0,0,0,0,0,0,0,0,0,0,0,0,0,0,0,0,0,0,0,0,0,0,0,0,0,0,0,0,0,0,0,0,0,0,0,0,0,0,0,0,0,0,0,0,0,0,0,0,0,0,0,0,0,0,0,0,0,0,0,0,0,0,0,0,0,0,0,0,0,0,0,0,0,0,0,0,0,0,0,0,0,0,0,0,0,0,0],"id":8,"left_children":[1,3,5,7,9,11,13,15,17,19,21,23,25,27,29,31,33,35,37,39,41,43,-1,-1,45,47,49,51,53,55,-1,-1,-1,57,59,61,63,65,67,69,71,73,75,77,-1,-1,79,81,83,85,87,89,91,93,95,97,-1,-1,-1,-1,-1,-1,-1,-1,-1,-1,-1,-1,-1,-1,-1,-1,-1,-1,-1,-1,-1,-1,-1,-1,-1,-1,-1,-1,-1,-1,-1,-1,-1,-1,-1,-1,-1,-1,-1,-1,-1,-1,-1],"loss_changes":[1.0239798E2,2.2592361E1,4.4749653E1,2.1251967E0,1.1194176E1,4.4763687E1,4.3263157E1,8.489895E-1,1.4940772E0,7.8710785E0,1.2686615E0,1.8113785E0,1.2188309E1,2.083046E1,6.553543E0,1.196208E-1,1.8517694E-1,3.9282805E-1,1.6569419E0,7.9300766E0,9.281883E0,6.0222054E-1,0E0,0E0,2.3897705E0,1.4439739E1,1.1436144E1,2.7478138E1,1.3245745E1,3.9934635E0,0E0,0E0,0E0,1.4125466E-2,1.9514713E-2,1.4552698E-1,3.4702528E-1,3.6056018E-1,2.338027E-1,3.4156303E0,4.2593E0,2.7174659E0,1.7169647E0,6.314935E-2,0E0,0E0,2.367485E0,3.703125E0,4.3119574E0,4.1800423E0,3.7891822E0,1.1385338E1,1.3483685E1,6.807728E-1,1.5299425E1,1.3944585E0,0E0,0E0,0E0,0E0,0E0,0E0,0E0,0E0,0E0,0E0,0E0,0E0,0E0,0E0,0E0,0E0,0E0,0E0,0E0,0E0,0E0,0E0,0E0,0E0,0E0,0E0,0E0,0E0,0E0,0E0,0E0,0E0,0E0,0E0,0E0,0E0,0E0,0E0,0E0,0E0,0E0,0E0,0E0],"parents":[2147483647,0,0,1,1,2,2,3,3,4,4,5,5,6,6,7,7,8,8,9,9,10,10,11,11,12,12,13,13,14,14,15,15,16,16,17,17,18,18,19,19,20,20,21,21,24,24,25,25,26,26,27,27,28,28,29,29,33,33,34,34,35,35,36,36,37,37,38,38,39,39,40,40,41,41,42,42,43,43,46,46,47,47,48,48,49,49,50,50,51,51,52,52,53,53,54,54,55,55],"right_children":[2,4,6,8,10,12,14,16,18,20,22,24,26,28,30,32,34,36,38,40,42,44,-1,-1,46,48,50,52,54,56,-1,-1,-1,58,60,62,64,66,68,70,72,74,76,78,-1,-1,80,82,84,86,88,90,92,94,96,98,-1,-1,-1,-1,-1,-1,-1,-1,-1,-1,-1,-1,-1,-1,-1,-1,-1,-1,-1,-1,-1,-1,-1,-1,-1,-1,-1,-1,-1,-1,-1,-1,-1,-1,-1,-1,-1,-1,-1,-1,-1,-1,-1],"split_conditions":[-5.013588E-1,-4.75114E-1,-3.2495323E-1,-9.792251E-1,1.56689E0,1.5812647E-2,5.1708245E-1,-4.56167E-1,1.0830323E0,9.213323E-1,4.9020514E-1,-7.53984E-1,-1.0435797E0,-8.89707E-1,4.0439898E-1,4.825054E-1,-2.3785682E0,2.0667026E0,1.9415525E-1,1.1230254E0,6.1174408E-2,-2.4480944E0,-8.0114506E-2,5.7507783E-2,-8.89707E-1,1.7298319E0,4.8558947E-1,1.6807654E0,-7.190903E-1,-1.6080523E-1,-6.2233575E-2,3.0836738E-3,3.289752E-2,-1.0650312E0,-1.1186601E0,-5.0358856E-1,-8.183386E-1,1.8548512E0,-7.647097E-1,-1.7712934E-1,-8.120732E-2,1.0830323E0,-6.187553E-1,-4.3221092E-1,-5.0166022E-2,6.724464E-2,1.4250894E0,1.290026E-1,-1.4297073E0,1.0163902E0,-9.689789E-2,-1.9084166E0,-9.452189E-1,-2.2842133E-1,1.144477E0,-1.3905968E-2,-4.280907E-2,9.773455E-3,-0E0,-0E0,-8.533243E-3,2.7976425E-3,-5.5982755E-3,2.053621E-2,3.148006E-3,-2.4904463E-2,-4.7256937E-3,5.987694E-3,-6.38133E-3,3.431771E-3,-1.832015E-2,-2.6154408E-2,-5.6913983E-2,-1.3214049E-2,-5.0647028E-2,-0E0,-6.8623155E-2,-1.5357959E-2,-0E0,3.7649054E-2,-5.2016517E-3,3.9183587E-2,2.090024E-2,1.530795E-2,-2.098182E-2,1.3221298E-2,-2.4029925E-2,-2.6543578E-2,-2.318453E-3,5.8163602E-2,2.1440485E-2,1.3846143E-2,-3.367771E-2,-2.2551538E-2,-4.0988464E-2,5.2028783E-3,-3.410401E-2,-7.413756E-3,-2.7926946E-2],"split_indices":[2,0,0,0,28,1,1,10,1,1,0,0,0,1,0,20,2,8,7,0,0,2,0,0,1,1,3,0,27,11,0,0,0,0,0,10,0,9,0,8,1,1,10,0,0,0,4,1,0,7,27,1,28,0,0,0,0,0,0,0,0,0,0,0,0,0,0,0,0,0,0,0,0,0,0,0,0,0,0,0,0,0,0,0,0,0,0,0,0,0,0,0,0,0,0,0,0,0,0],"split_type":[0,0,0,0,0,0,0,0,0,0,0,0,0,0,0,0,0,0,0,0,0,0,0,0,0,0,0,0,0,0,0,0,0,0,0,0,0,0,0,0,0,0,0,0,0,0,0,0,0,0,0,0,0,0,0,0,0,0,0,0,0,0,0,0,0,0,0,0,0,0,0,0,0,0,0,0,0,0,0,0,0,0,0,0,0,0,0,0,0,0,0,0,0,0,0,0,0,0,0],"sum_hessian":[1.294E3,3.37E2,9.57E2,7.8E1,2.59E2,4.61E2,4.96E2,1.4E1,6.4E1,2.34E2,2.5E1,1.02E2,3.59E2,4.17E2,7.9E1,6E0,8E0,3.2E1,3.2E1,1.81E2,5.3E1,1.5E1,1E1,4.5E1,5.7E1,1.57E2,2.02E2,1.86E2,2.31E2,6.1E1,1.8E1,1E0,5E0,6E0,2E0,1.8E1,1.4E1,1.8E1,1.4E1,1.25E2,5.6E1,2.8E1,2.5E1,2E0,1.3E1,8E0,4.9E1,1.24E2,3.3E1,1.37E2,6.5E1,1.28E2,5.8E1,3.5E1,1.96E2,3.7E1,2.4E1,5E0,1E0,1E0,1E0,9E0,9E0,4E0,1E1,1.4E1,4E0,9E0,5E0,2.1E1,1.04E2,3.7E1,1.9E1,2.2E1,6E0,1E0,2.4E1,1E0,1E0,4.6E1,3E0,5.5E1,6.9E1,1.2E1,2.1E1,1.3E2,7E0,3.1E1,3.4E1,2.7E1,1.01E2,2.7E1,3.1E1,1.6E1,1.9E1,1.68E2,2.8E1,2.3E1,1.4E1],"tree_param":{"num_deleted":"0","num_feature":"30","num_nodes":"99","size_leaf_vector":"1"}},{"base_weights":[-7.782017E-3,2.1848787E-1,-2.974906E-1,4.3575174E-1,5.6863435E-2,-1.5264627E-1,-7.9002434E-1,6.888877E-1,6.8771414E-2,2.3627858E-1,-6.0386723E-1,-5.7073142E-2,-3.8288534E-1,-3.774969E-1,-1.0483433E0,9.843373E-1,5.0732726E-1,2.6484212E-1,-2.9217616E-1,3.4126088E-1,-3.3865008E-1,-6.753078E-1,3.151951E-1,3.8958272E-1,-1.5494679E-1,-1.6142988E-1,-8.8155466E-1,1.0901413E-2,-5.2745575E-1,-7.6304924E-1,-6.245915E-2,5.2352052E-2,5.059514E-1,7.429446E-1,1.2207925E-1,5.118332E-1,-1.4166969E-1,-5.973998E-1,1.1422335E-1,5.524338E-1,1.314515E-1,-1.1366951E-1,-1.2397035E0,8.2117185E-2,-7.261956E-1,4.370537E-1,-7.898913E-3,5.9637696E-1,2.003494E-1,7.234124E-2,-3.357572E-1,2.2267407E-2,-2.4409398E-1,-7.420552E-1,-8.3087005E-2,1.5555515E-2,-8.174333E-2,-7.5778127E-1,-2.8879002E-1,-0E0,-8.3331347E-1,3.910258E-2,1.308077E-2,4.239263E-2,1.9069526E-2,1.5982287E-2,-7.991759E-3,3.8358018E-2,1.3971514E-2,1.374839E-2,-2.052003E-2,-3.2229226E-2,-0E0,2.9798841E-2,-3.9713127E-3,4.938926E-2,1.6854007E-2,1.2479804E-3,4.2610195E-2,3.375655E-3,-2.902927E-2,-3.380111E-2,-7.43077E-2,7.5214617E-3,-3.9860765E-3,-5.1212978E-2,-3.1234903E-2,2.6548494E-2,-0E0,3.3779234E-2,1.6060572E-2,2.686337E-3,1.6410012E-2,1.1734091E-2,-9.94208E-3,1.1604364E-2,-2.2368073E-2,-2.4307346E-2,3.8063052E-4,-5.7369925E-2,-2.9808471E-2,-1.4417687E-2,1.2259099E-2,-8.159305E-3,-4.831133E-2,-9.149603E-3,-3.2061692E-2,-7.324622E-3,4.2048837E-3,-3.276329E-2,-5.7474583E-2],"categories":[],"categories_nodes":[],"categories_segments":[],"categories_sizes":[],"default_left":[0,0,0,0,0,0,0,0,0,0,0,0,0,0,0,0,0,0,0,0,0,0,0,0,0,0,0,0,0,0,0,0,0,0,0,0,0,0,0,0,0,0,0,0,0,0,0,0,0,0,0,0,0,0,0,0,0,0,0,0,0,0,0,0,0,0,0,0,0,0,0,0,0,0,0,0,0,0,0,0,0,0,0,0,0,0,0,0,0,0,0,0,0,0,0,0,0,0,0,0,0,0,0,0,0,0,0,0,0,0,0],"id":9,"left_children":[1,3,5,7,9,11,13,15,17,19,21,23,25,27,29,31,33,35,37,39,41,43,45,47,49,51,53,55,57,59,-1,-1,61,63,65,67,69,71,73,75,77,79,81,83,85,87,-1,89,91,93,95,-1,97,99,-1,-1,101,103,105,107,109,-1,-1,-1,-1,-1,-1,-1,-1,-1,-1,-1,-1,-1,-1,-1,-1,-1,-1,-1,-1,-1,-1,-1,-1,-1,-1,-1,-1,-1,-1,-1,-1,-1,-1,-1,-1,-1,-1,-1,-1,-1,-1,-1,-1,-1,-1,-1,-1,-1,-1],"loss_changes":[8.4438736E1,2.5314213E1,4.0092644E1,2.8488808E1,4.9420677E1,9.572196E0,1.3101814E1,9.114288E0,9.062595E0,1.9913034E1,6.092457E0,1.3632527E1,1.3888821E1,3.0278373E0,3.3148575E0,1.3547211E0,1.0261478E1,8.443126E0,5.6984777E0,1.2176079E1,1.0062441E1,3.323162E0,5.0057423E-1,1.9922543E0,1.0571219E1,4.60287E0,2.771099E0,4.6555948E-1,1.7104235E0,1.842619E0,0E0,0E0,3.6564875E-1,2.2467346E0,2.5734296E0,2.76659E0,3.709218E0,6.9269276E-1,1.9648186E0,1.2472675E1,1.0713367E1,3.6435804E0,1.683054E-1,8.5396424E-2,1.554966E0,2.6354945E-1,0E0,2.4999046E-1,5.252949E-1,5.068982E0,9.187815E0,0E0,4.92566E0,1.2112846E0,0E0,0E0,8.8557035E-1,1.9603148E0,5.4599357E-1,6.413732E-2,8.677349E-1,0E0,0E0,0E0,0E0,0E0,0E0,0E0,0E0,0E0,0E0,0E0,0E0,0E0,0E0,0E0,0E0,0E0,0E0,0E0,0E0,0E0,0E0,0E0,0E0,0E0,0E0,0E0,0E0,0E0,0E0,0E0,0E0,0E0,0E0,0E0,0E0,0E0,0E0,0E0,0E0,0E0,0E0,0E0,0E0,0E0,0E0,0E0,0E0,0E0,0E0],"parents":[2147483647,0,0,1,1,2,2,3,3,4,4,5,5,6,6,7,7,8,8,9,9,10,10,11,11,12,12,13,13,14,14,15,15,16,16,17,17,18,18,19,19,20,20,21,21,22,22,23,23,24,24,25,25,26,26,27,27,28,28,29,29,32,32,33,33,34,34,35,35,36,36,37,37,38,38,39,39,40,40,41,41,42,42,43,43,44,44,45,45,47,47,48,48,49,49,50,50,52,52,53,53,56,56,57,57,58,58,59,59,60,60],"right_children":[2,4,6,8,10,12,14,16,18,20,22,24,26,28,30,32,34,36,38,40,42,44,46,48,50,52,54,56,58,60,-1,-1,62,64,66,68,70,72,74,76,78,80,82,84,86,88,-1,90,92,94,96,-1,98,100,-1,-1,102,104,106,108,110,-1,-1,-1,-1,-1,-1,-1,-1,-1,-1,-1,-1,-1,-1,-1,-1,-1,-1,-1,-1,-1,-1,-1,-1,-1,-1,-1,-1,-1,-1,-1,-1,-1,-1,-1,-1,-1,-1,-1,-1,-1,-1,-1,-1,-1,-1,-1,-1,-1,-1],"split_conditions":[4.5394018E-1,-6.4672625E-1,6.8326896E-1,1.290026E-1,-6.633271E-1,5.044864E-2,-6.633271E-1,-6.633271E-1,-1.1401116E0,1.8952807E0,1.3197553E0,3.877225E-1,6.141024E-1,-1.3457512E0,-4.56167E-1,1.4250894E0,-9.4704777E-1,1.0830323E0,-1.5131404E-1,-1.4233168E0,-8.4852517E-1,-5.716459E-1,-1.4261518E-1,6.983655E-1,-5.1801705E-1,-6.633271E-1,1.0830323E0,8.65607E-1,6.1557525E-1,7.2617203E-1,-6.245915E-2,5.2352052E-2,-1.0435797E0,9.010953E-1,-8.5051584E-1,-1.311724E0,-1.4297073E0,-8.6124164E-1,-8.8986146E-1,2.0060939E-1,1.9685295E-1,3.3325336E0,1.1552514E0,-6.14549E-1,-7.190903E-1,1.290026E-1,-7.898913E-3,-1.2116365E-1,-1.6080523E-1,1.0830323E0,-5.801823E-1,2.2267407E-2,1.5774632E-1,-3.6573616E-1,-8.3087005E-2,1.5555515E-2,1.1122997E0,1.1230254E0,2.1312475E0,7.047205E-1,1.423347E0,3.910258E-2,1.308077E-2,4.239263E-2,1.9069526E-2,1.5982287E-2,-7.991759E-3,3.8358018E-2,1.3971514E-2,1.374839E-2,-2.052003E-2,-3.2229226E-2,-0E0,2.9798841E-2,-3.9713127E-3,4.938926E-2,1.6854007E-2,1.2479804E-3,4.2610195E-2,3.375655E-3,-2.902927E-2,-3.380111E-2,-7.43077E-2,7.5214617E-3,-3.9860765E-3,-5.1212978E-2,-3.1234903E-2,2.6548494E-2,-0E0,3.3779234E-2,1.6060572E-2,2.686337E-3,1.6410012E-2,1.1734091E-2,-9.94208E-3,1.1604364E-2,-2.2368073E-2,-2.4307346E-2,3.8063052E-4,-5.7369925E-2,-2.9808471E-2,-1.4417687E-2,1.2259099E-2,-8.159305E-3,-4.831133E-2,-9.149603E-3,-3.2061692E-2,-7.324622E-3,4.2048837E-3,-3.276329E-2,-5.7474583E-2],"split_indices":[20,0,0,1,1,0,1,1,0,0,9,1,1,6,10,4,0,1,10,1,22,0,0,28,0,1,1,0,4,0,0,0,0,7,0,0,0,0,6,0,20,0,4,0,27,1,0,0,11,1,22,0,7,21,0,0,0,0,0,0,0,0,0,0,0,0,0,0,0,0,0,0,0,0,0,0,0,0,0,0,0,0,0,0,0,0,0,0,0,0,0,0,0,0,0,0,0,0,0,0,0,0,0,0,0,0,0,0,0,0,0],"split_type":[0,0,0,0,0,0,0,0,0,0,0,0,0,0,0,0,0,0,0,0,0,0,0,0,0,0,0,0,0,0,0,0,0,0,0,0,0,0,0,0,0,0,0,0,0,0,0,0,0,0,0,0,0,0,0,0,0,0,0,0,0,0,0,0,0,0,0,0,0,0,0,0,0,0,0,0,0,0,0,0,0,0,0,0,0,0,0,0,0,0,0,0,0,0,0,0,0,0,0,0,0,0,0,0,0,0,0,0,0,0,0],"sum_hessian":[1.286E3,7.22E2,5.64E2,3.07E2,4.15E2,4.37E2,1.27E2,1.81E2,1.26E2,3.27E2,8.8E1,3.1E2,1.27E2,5E1,7.7E1,6.7E1,1.14E2,8.2E1,4.4E1,2.77E2,5E1,8.2E1,6E0,5.5E1,2.55E2,8.9E1,3.8E1,1.4E1,3.6E1,3.4E1,4.3E1,5.8E1,9E0,7E1,4.4E1,5.1E1,3.1E1,2.5E1,1.9E1,1.37E2,1.4E2,4.1E1,9E0,5E0,7.7E1,5E0,1E0,2.5E1,3E1,1.13E2,1.42E2,1E1,7.9E1,3.4E1,4E0,3E0,1.1E1,1.7E1,1.9E1,3E0,3.1E1,3E0,6E0,5.3E1,1.7E1,2.6E1,1.8E1,2.3E1,2.8E1,1.2E1,1.9E1,2.3E1,2E0,5E0,1.4E1,4.4E1,9.3E1,1.23E2,1.7E1,3E1,1.1E1,4E0,5E0,4E0,1E0,1.7E1,6E1,4E0,1E0,1.8E1,7E0,1.5E1,1.5E1,7.1E1,4.2E1,2.3E1,1.19E2,4E1,3.9E1,7E0,2.7E1,7E0,4E0,5E0,1.2E1,1.6E1,3E0,1E0,2E0,2.2E1,9E0],"tree_param":{"num_deleted":"0","num_feature":"30","num_nodes":"111","size_leaf_vector":"1"}},{"base_weights":[2.0251742E-2,-4.1222104E-1,1.6716948E-1,-1.6906978E-1,-4.817274E-1,2.8734007E-1,-1.1484146E-1,9.968354E-2,-2.1838182E-1,-4.9627602E-1,1.6995508E-2,3.8374612E-1,1.6287702E-1,-1.5885858E-1,1.993495E-2,3.0637553E-1,-2.3096035E-1,-3.2371587E-1,-8.4879376E-2,-6.733017E-1,-4.543033E-1,-1.1133532E-2,9.732933E-2,2.3673949E-1,4.2035726E-1,3.2978785E-1,8.4245786E-2,-2.2892174E-1,3.3659477E-2,-0E0,3.3664775E-1,3.250397E-2,-2.2538561E-2,1.6931836E-3,-3.4944382E-1,-1.8776304E-1,2.2354577E-2,-7.50988E-1,-2.476448E-2,-4.4057465E-1,-5.9696563E-2,1.384612E-1,3.43256E-4,2.493423E-2,1.6599165E-1,4.3750483E-1,1.1803983E-1,4.6978652E-1,2.6277664E-1,-1.4437559E-1,1.2638164E-1,-1.7520134E-1,-6.2336296E-1,-1.00314915E-1,2.1731319E-1,6.890075E-3,2.1316601E-2,3.653363E-3,-0E0,-0E0,-1.8456394E-2,-1.0051385E-2,1.0963297E-3,-4.0359955E-2,-8.643441E-3,-3.654718E-2,-2.0810284E-2,-0E0,9.328753E-3,-3.0098946E-3,1.2236281E-2,2.0555204E-2,2.6543265E-2,-5.685787E-3,8.931934E-3,3.0082911E-2,1.2675457E-2,1.5306448E-2,8.409089E-3,-1.9829914E-3,-1.1427828E-2,1.3239997E-2,2.3489926E-4,-9.524839E-4,-1.4556229E-2,-3.9014928E-2,-2.0307356E-2,-7.7773086E-3,1.2016516E-2,3.9219363E-3,2.1116393E-2],"categories":[],"categories_nodes":[],"categories_segments":[],"categories_sizes":[],"default_left":[0,0,0,0,0,0,0,0,0,0,0,0,0,0,0,0,0,0,0,0,0,0,0,0,0,0,0,0,0,0,0,0,0,0,0,0,0,0,0,0,0,0,0,0,0,0,0,0,0,0,0,0,0,0,0,0,0,0,0,0,0,0,0,0,0,0,0,0,0,0,0,0,0,0,0,0,0,0,0,0,0,0,0,0,0,0,0,0,0,0,0],"id":10,"left_children":[1,3,5,7,9,11,13,15,17,19,21,23,25,27,-1,29,31,33,35,37,39,-1,41,43,45,47,49,51,53,-1,55,57,-1,-1,59,61,-1,63,-1,65,-1,67,-1,-1,69,71,73,75,77,79,81,83,85,87,89,-1,-1,-1,-1,-1,-1,-1,-1,-1,-1,-1,-1,-1,-1,-1,-1,-1,-1,-1,-1,-1,-1,-1,-1,-1,-1,-1,-1,-1,-1,-1,-1,-1,-1,-1,-1],"loss_changes":[8.2453094E1,5.4137573E0,3.28891E1,1.027597E0,1.9065704E0,8.042152E0,6.5946794E0,8.9839935E-1,8.316541E-1,1.4240608E0,1.6316462E-1,1.890728E0,3.8550096E0,3.6421294E0,0E0,4.239422E-2,3.4604022E-1,3.6538458E-1,1.6999478E0,1.2572479E-1,1.3819656E0,0E0,1.056356E-2,1.3147864E0,1.4687424E0,6.9453526E-1,1.9912442E0,3.9852686E0,1.8050519E0,0E0,9.671092E-3,7.508124E-3,0E0,0E0,1.942544E-1,9.4635904E-2,0E0,7.048588E-1,0E0,1.0104179E0,0E0,2.774474E-2,0E0,0E0,1.1729479E0,3.949585E-1,2.7960047E-1,5.890622E-1,1.7584419E-1,2.4619621E-1,2.902531E0,3.1312184E0,3.4848404E-1,8.1910306E-1,7.9940665E-1,0E0,0E0,0E0,0E0,0E0,0E0,0E0,0E0,0E0,0E0,0E0,0E0,0E0,0E0,0E0,0E0,0E0,0E0,0E0,0E0,0E0,0E0,0E0,0E0,0E0,0E0,0E0,0E0,0E0,0E0,0E0,0E0,0E0,0E0,0E0,0E0],"parents":[2147483647,0,0,1,1,2,2,3,3,4,4,5,5,6,6,7,7,8,8,9,9,10,10,11,11,12,12,13,13,15,15,16,16,17,17,18,18,19,19,20,20,22,22,23,23,24,24,25,25,26,26,27,27,28,28,30,30,31,31,34,34,35,35,37,37,39,39,41,41,44,44,45,45,46,46,47,47,48,48,49,49,50,50,51,51,52,52,53,53,54,54],"right_children":[2,4,6,8,10,12,14,16,18,20,22,24,26,28,-1,30,32,34,36,38,40,-1,42,44,46,48,50,52,54,-1,56,58,-1,-1,60,62,-1,64,-1,66,-1,68,-1,-1,70,72,74,76,78,80,82,84,86,88,90,-1,-1,-1,-1,-1,-1,-1,-1,-1,-1,-1,-1,-1,-1,-1,-1,-1,-1,-1,-1,-1,-1,-1,-1,-1,-1,-1,-1,-1,-1,-1,-1,-1,-1,-1,-1],"split_conditions":[-5.013588E-1,-2.5125816E-1,4.5394018E-1,-6.925814E-1,1.2723993E1,-6.633271E-1,1.1812922E0,1.5812647E-2,1.290026E-1,-1.3502129E0,1.290026E-1,-3.7311348E-1,1.45396E-1,-1.2813324E-1,1.993495E-2,1.2705877E-1,-6.404114E-1,-5.4639097E-2,4.825054E-1,3.6222818E-1,1.7945119E0,-1.1133532E-2,1.0830323E0,-1.9084166E0,7.4372417E-1,-2.2325374E-1,-1.3177439E0,4.924356E0,-5.0358856E-1,-0E0,-6.956671E-1,-1.2429724E0,-2.2538561E-2,1.6931836E-3,-1.1734462E0,8.616916E-1,2.2354577E-2,1.0830323E0,-2.476448E-2,-2.4249191E0,-5.9696563E-2,1.0298748E0,3.43256E-4,2.493423E-2,-1.4233168E0,1.509577E0,-1.9084166E0,1.290026E-1,1.290026E-1,1.0588673E0,1.290026E-1,-4.3496583E-2,5.400401E-1,3.9945117E-1,-1.4094532E0,6.890075E-3,2.1316601E-2,3.653363E-3,-0E0,-0E0,-1.8456394E-2,-1.0051385E-2,1.0963297E-3,-4.0359955E-2,-8.643441E-3,-3.654718E-2,-2.0810284E-2,-0E0,9.328753E-3,-3.0098946E-3,1.2236281E-2,2.0555204E-2,2.6543265E-2,-5.685787E-3,8.931934E-3,3.0082911E-2,1.2675457E-2,1.5306448E-2,8.409089E-3,-1.9829914E-3,-1.1427828E-2,1.3239997E-2,2.3489926E-4,-9.524839E-4,-1.4556229E-2,-3.9014928E-2,-2.0307356E-2,-7.7773086E-3,1.2016516E-2,3.9219363E-3,2.1116393E-2],"split_indices":[2,11,20,15,26,1,12,1,1,5,1,23,5,16,0,14,2,7,20,13,1,0,1,1,11,2,8,25,10,0,1,2,0,0,2,12,0,1,0,2,0,22,0,0,1,24,1,1,1,7,1,22,7,3,3,0,0,0,0,0,0,0,0,0,0,0,0,0,0,0,0,0,0,0,0,0,0,0,0,0,0,0,0,0,0,0,0,0,0,0,0],"split_type":[0,0,0,0,0,0,0,0,0,0,0,0,0,0,0,0,0,0,0,0,0,0,0,0,0,0,0,0,0,0,0,0,0,0,0,0,0,0,0,0,0,0,0,0,0,0,0,0,0,0,0,0,0,0,0,0,0,0,0,0,0,0,0,0,0,0,0,0,0,0,0,0,0,0,0,0,0,0,0,0,0,0,0,0,0,0,0,0,0,0,0],"sum_hessian":[1.296E3,3.28E2,9.68E2,7.4E1,2.54E2,6.79E2,2.89E2,1.1E1,6.3E1,2.47E2,7E0,3.81E2,2.98E2,2.67E2,2.2E1,7E0,4E0,3.4E1,2.9E1,4.4E1,2.03E2,1E0,6E0,7.8E1,3.03E2,9.4E1,2.04E2,1.96E2,7.1E1,1E0,6E0,2E0,2E0,2E0,3.2E1,2.5E1,4E0,2.8E1,1.6E1,2.01E2,2E0,3E0,3E0,1.5E1,6.3E1,2.86E2,1.7E1,2.8E1,6.6E1,3.1E1,1.73E2,1.74E2,2.2E1,4.1E1,3E1,3E0,3E0,1E0,1E0,2E0,3E1,2.4E1,1E0,2.5E1,3E0,1.3E1,1.88E2,1E0,2E0,1.6E1,4.7E1,2.28E2,5.8E1,3E0,1.4E1,1.6E1,1.2E1,4.3E1,2.3E1,1.5E1,1.6E1,8E1,9.3E1,7.5E1,9.9E1,1.1E1,1.1E1,3.6E1,5E0,1.9E1,1.1E1],"tree_param":{"num_deleted":"0","num_feature":"30","num_nodes":"91","size_leaf_vector":"1"}},{"base_weights":[-1.429084E-2,3.6944896E-1,-1.6754805E-1,6.712059E-1,1.1466493E-1,1.2836643E-1,-3.8004297E-1,9.463072E-1,4.9783146E-1,-4.0108874E-2,2.402877E-1,3.6108658E-1,-1.8774073E-1,-2.513675E-1,-9.5681024E-1,5.5775374E-2,8.0667853E-1,6.417103E-1,-7.6147124E-2,1.7507015E-1,-4.4544116E-1,4.4971964E-1,1.20869E-1,6.8007296E-1,1.3285309E-1,1.1068821E-3,-5.672743E-1,-2.0400047E-1,-9.6991146E-1,-8.387572E-1,-1.2816921E0,4.3139752E-2,7.4960686E-2,1.456712E-1,7.0457315E-1,-2.7916488E-1,3.2497313E-2,4.460338E-1,-1.2651287E-1,-6.8477875E-1,1.3957946E-1,7.411381E-1,2.9478538E-1,-2.603967E-2,1.8759689E-1,1.0259839E0,4.4184875E-1,-8.378252E-2,4.8052502E-1,9.0356655E-2,-6.709573E-1,-2.5315887E-1,-9.8894966E-1,-4.7984097E-2,-1.6725375E-1,-6.846498E-1,-8.3642595E-2,-1.2071021E0,-6.713064E-1,-1.353688E0,-2.7914554E-2,2.2072187E-2,-8.050746E-3,-0E0,8.471846E-3,4.611123E-2,2.6837809E-2,-0E0,-2.26713E-2,3.1289745E-2,1.50943715E-2,1.6749013E-2,-1.9614885E-2,-2.802228E-3,-4.044655E-2,-6.4253146E-3,2.2668323E-2,3.9039526E-2,4.1327397E-3,2.585715E-2,1.4173053E-3,2.9451085E-2,4.8220814E-3,5.432835E-2,-0E0,9.570754E-3,4.6368923E-2,1.1321691E-2,-3.16186E-2,1.6062137E-2,4.8154444E-2,-3.347284E-3,2.8132468E-2,-2.0325684E-3,-3.8638595E-2,-1.8284896E-2,4.8039876E-2,-5.5366736E-2,-2.7293941E-2,-1.0143829E-3,-1.709108E-2,-1.9364486E-2,-4.335312E-2,-9.398467E-3,-6.4730845E-2,-1.6523352E-2,-4.5515057E-2,-7.0601255E-2,-2.4982823E-2],"categories":[],"categories_nodes":[],"categories_segments":[],"categories_sizes":[],"default_left":[0,0,0,0,0,0,0,0,0,0,0,0,0,0,0,0,0,0,0,0,0,0,0,0,0,0,0,0,0,0,0,0,0,0,0,0,0,0,0,0,0,0,0,0,0,0,0,0,0,0,0,0,0,0,0,0,0,0,0,0,0,0,0,0,0,0,0,0,0,0,0,0,0,0,0,0,0,0,0,0,0,0,0,0,0,0,0,0,0,0,0,0,0,0,0,0,0,0,0,0,0,0,0,0,0,0,0,0,0],"id":11,"left_children":[1,3,5,7,9,11,13,15,17,19,21,23,25,27,29,-1,31,33,35,37,39,41,43,45,47,49,51,53,55,57,59,-1,61,63,65,67,-1,69,71,73,75,77,79,-1,81,83,85,87,89,91,93,95,97,-1,99,101,-1,103,105,107,-1,-1,-1,-1,-1,-1,-1,-1,-1,-1,-1,-1,-1,-1,-1,-1,-1,-1,-1,-1,-1,-1,-1,-1,-1,-1,-1,-1,-1,-1,-1,-1,-1,-1,-1,-1,-1,-1,-1,-1,-1,-1,-1,-1,-1,-1,-1,-1,-1],"loss_changes":[7.626062E1,2.8291103E1,5.8364017E1,7.44503E0,3.9571648E0,2.862815E1,3.9715195E1,4.1994095E-1,8.859253E0,8.041949E0,2.689715E0,1.6136314E1,1.1883454E1,1.47623825E1,2.47155E0,0E0,1.4429436E0,2.4628487E0,3.3873801E0,4.991463E0,4.630659E0,1.4839592E0,3.1900039E0,7.063492E0,1.0021925E1,6.6605206E0,6.9104385E0,1.13063965E1,4.033024E0,3.6277962E0,3.0301285E-1,0E0,4.450462E-1,2.4958715E-2,2.0985146E0,8.58752E-1,0E0,5.47493E-1,3.6942213E0,1.663517E0,9.3196464E-1,1.8855524E-1,1.5896463E0,0E0,2.3263102E0,2.374176E0,6.641406E0,1.4138659E1,3.4822388E0,7.44222E0,7.2150993E-1,4.800229E0,4.3662643E-1,0E0,1.019342E1,6.778469E-1,0E0,1.5705566E0,3.973877E0,1.4956284E-1,0E0,0E0,0E0,0E0,0E0,0E0,0E0,0E0,0E0,0E0,0E0,0E0,0E0,0E0,0E0,0E0,0E0,0E0,0E0,0E0,0E0,0E0,0E0,0E0,0E0,0E0,0E0,0E0,0E0,0E0,0E0,0E0,0E0,0E0,0E0,0E0,0E0,0E0,0E0,0E0,0E0,0E0,0E0,0E0,0E0,0E0,0E0,0E0,0E0],"parents":[2147483647,0,0,1,1,2,2,3,3,4,4,5,5,6,6,7,7,8,8,9,9,10,10,11,11,12,12,13,13,14,14,16,16,17,17,18,18,19,19,20,20,21,21,22,22,23,23,24,24,25,25,26,26,27,27,28,28,29,29,30,30,32,32,33,33,34,34,35,35,37,37,38,38,39,39,40,40,41,41,42,42,44,44,45,45,46,46,47,47,48,48,49,49,50,50,51,51,52,52,54,54,55,55,57,57,58,58,59,59],"right_children":[2,4,6,8,10,12,14,16,18,20,22,24,26,28,30,-1,32,34,36,38,40,42,44,46,48,50,52,54,56,58,60,-1,62,64,66,68,-1,70,72,74,76,78,80,-1,82,84,86,88,90,92,94,96,98,-1,100,102,-1,104,106,108,-1,-1,-1,-1,-1,-1,-1,-1,-1,-1,-1,-1,-1,-1,-1,-1,-1,-1,-1,-1,-1,-1,-1,-1,-1,-1,-1,-1,-1,-1,-1,-1,-1,-1,-1,-1,-1,-1,-1,-1,-1,-1,-1,-1,-1,-1,-1,-1,-1],"split_conditions":[-6.4672625E-1,1.290026E-1,-6.633271E-1,-6.633271E-1,-2.7977428E-1,9.835904E-1,6.403659E-1,-8.076128E-1,-8.5051584E-1,-1.1401116E0,-9.792251E-1,-8.89707E-1,-2.2970647E-1,1.1153722E0,1.290026E-1,5.5775374E-2,1.7848734E0,-1.3925383E0,-4.8619324E-1,1.0830323E0,-9.3606156E-1,-3.790361E-1,-1.8113699E0,-1.3905968E-2,-3.855233E-1,3.3325336E0,1.6700397E0,-7.190903E-1,-2.6059863E-1,-1.1462662E0,8.854133E-1,4.3139752E-2,-1.4233168E0,-4.0450633E-1,-1.1293858E0,2.8136045E-1,3.2497313E-2,-1.311724E0,-1.4297073E0,9.213323E-1,1.2608342E0,1.7945119E0,-1.1830146E0,-2.603967E-2,7.71804E-1,1.7848734E0,1.4855646E0,-2.069698E-1,6.9174397E-1,1.2331116E0,-1.0399283E-1,1.9129338E0,2.1975927E0,-4.7984097E-2,7.111224E-1,-6.038232E-1,-8.3642595E-2,7.1544623E-1,1.1552027E0,1.6896703E0,-2.7914554E-2,2.2072187E-2,-8.050746E-3,-0E0,8.471846E-3,4.611123E-2,2.6837809E-2,-0E0,-2.26713E-2,3.1289745E-2,1.50943715E-2,1.6749013E-2,-1.9614885E-2,-2.802228E-3,-4.044655E-2,-6.4253146E-3,2.2668323E-2,3.9039526E-2,4.1327397E-3,2.585715E-2,1.4173053E-3,2.9451085E-2,4.8220814E-3,5.432835E-2,-0E0,9.570754E-3,4.6368923E-2,1.1321691E-2,-3.16186E-2,1.6062137E-2,4.8154444E-2,-3.347284E-3,2.8132468E-2,-2.0325684E-3,-3.8638595E-2,-1.8284896E-2,4.8039876E-2,-5.5366736E-2,-2.7293941E-2,-1.0143829E-3,-1.709108E-2,-1.9364486E-2,-4.335312E-2,-9.398467E-3,-6.4730845E-2,-1.6523352E-2,-4.5515057E-2,-7.0601255E-2,-2.4982823E-2],"split_indices":[0,1,1,1,21,0,0,0,0,0,0,1,28,1,1,0,4,8,9,1,12,23,7,0,27,0,0,27,0,5,4,0,1,3,0,5,0,0,0,1,3,1,0,0,12,4,24,0,7,5,4,5,8,0,1,0,0,0,0,24,0,0,0,0,0,0,0,0,0,0,0,0,0,0,0,0,0,0,0,0,0,0,0,0,0,0,0,0,0,0,0,0,0,0,0,0,0,0,0,0,0,0,0,0,0,0,0,0,0],"split_type":[0,0,0,0,0,0,0,0,0,0,0,0,0,0,0,0,0,0,0,0,0,0,0,0,0,0,0,0,0,0,0,0,0,0,0,0,0,0,0,0,0,0,0,0,0,0,0,0,0,0,0,0,0,0,0,0,0,0,0,0,0,0,0,0,0,0,0,0,0,0,0,0,0,0,0,0,0,0,0,0,0,0,0,0,0,0,0,0,0,0,0,0,0,0,0,0,0,0,0,0,0,0,0,0,0,0,0,0,0],"sum_hessian":[1.295E3,3.69E2,9.26E2,1.68E2,2.01E2,3.87E2,5.39E2,6.3E1,1.05E2,9E1,1.11E2,2.23E2,1.64E2,4.42E2,9.7E1,2.5E1,3.8E1,8.4E1,2.1E1,5.9E1,3.1E1,3.9E1,7.2E1,9.2E1,1.31E2,1.1E2,5.4E1,4.16E2,2.6E1,7.4E1,2.3E1,3.5E1,3E0,1E1,7.4E1,1.7E1,4E0,3.1E1,2.8E1,2.2E1,9E0,1.2E1,2.7E1,6E0,6.6E1,3.6E1,5.6E1,8.1E1,5E1,9.8E1,1.2E1,3.2E1,2.2E1,1.8E1,3.98E2,2E1,6E0,2.1E1,5.3E1,2E1,3E0,1E0,2E0,2E0,8E0,3E1,4.4E1,7E0,1E1,1.2E1,1.9E1,1E1,1.8E1,4E0,1.8E1,5E0,4E0,1.1E1,1E0,1.4E1,1.3E1,1.1E1,5.5E1,3.4E1,2E0,3.8E1,1.8E1,5.2E1,2.9E1,3.9E1,1.1E1,7.4E1,2.4E1,2E0,1E1,3E1,2E0,1.6E1,6E0,2.17E2,1.81E2,9E0,1.1E1,2E0,1.9E1,2.3E1,3E1,1.8E1,2E0],"tree_param":{"num_deleted":"0","num_feature":"30","num_nodes":"109","size_leaf_vector":"1"}},{"base_weights":[8.103088E-3,-3.852064E-1,1.401157E-1,-1.6969206E-2,-4.9565145E-1,3.2853487E-1,-2.6020503E-2,2.6916862E-2,-5.6358457E-2,-7.1000683E-1,-2.89972E-1,7.9949325E-1,1.891125E-1,7.157473E-2,-6.373763E-1,-7.061531E-2,2.9878446E-1,-3.0790892E-1,-8.1047076E-1,-2.489694E-1,-4.7736816E-2,9.3785155E-1,5.458321E-1,3.4548497E-1,8.093379E-3,2.948526E-1,-8.8661805E-2,-4.7318837E-1,-5.4448742E-2,9.590181E-2,-3.7181535E-1,4.08006E-1,1.8363628E-1,-1.3146095E-1,-4.28746E-2,-6.600567E-1,-1.087547E0,1.4458826E-1,-3.371165E-1,3.135353E-2,4.9056888E-2,7.215895E-1,2.7005258E-1,6.672249E-1,1.6922222E-1,-2.3253763E-1,1.8636788E-1,4.5790595E-1,-2.9052877E-1,-5.172688E-1,3.4347434E-2,-1.4504667E-1,-7.275335E-1,-3.7838903E-3,7.559938E-3,-2.1770595E-2,-0E0,2.4076074E-2,3.3567294E-3,-8.06008E-3,1.3936201E-2,1.3275214E-2,-1.089638E-2,-2.461115E-2,-5.9001055E-2,-5.7146978E-2,-6.888592E-3,-2.1162832E-2,1.6569639E-2,-1.3523142E-2,-5.3282876E-2,5.43751E-2,2.9102761E-2,4.500821E-2,5.968004E-3,1.4684341E-3,3.7648726E-2,1.889048E-2,7.418291E-4,-6.671769E-3,-3.0613635E-2,3.5824686E-2,2.5919273E-3,4.143966E-2,1.5211882E-2,-5.4737907E-2,-5.926246E-3,-0E0,-3.0597089E-2,8.71286E-3,-2.2771617E-2,9.417827E-3,-2.651316E-2,-3.792976E-2,-8.089E-3],"categories":[],"categories_nodes":[],"categories_segments":[],"categories_sizes":[],"default_left":[0,0,0,0,0,0,0,0,0,0,0,0,0,0,0,0,0,0,0,0,0,0,0,0,0,0,0,0,0,0,0,0,0,0,0,0,0,0,0,0,0,0,0,0,0,0,0,0,0,0,0,0,0,0,0,0,0,0,0,0,0,0,0,0,0,0,0,0,0,0,0,0,0,0,0,0,0,0,0,0,0,0,0,0,0,0,0,0,0,0,0,0,0,0,0],"id":12,"left_children":[1,3,5,7,9,11,13,15,-1,17,19,21,23,25,27,29,31,33,35,37,-1,39,41,43,45,47,49,51,-1,53,55,57,59,61,-1,63,65,67,69,-1,-1,71,73,75,77,79,81,83,85,87,89,91,93,-1,-1,-1,-1,-1,-1,-1,-1,-1,-1,-1,-1,-1,-1,-1,-1,-1,-1,-1,-1,-1,-1,-1,-1,-1,-1,-1,-1,-1,-1,-1,-1,-1,-1,-1,-1,-1,-1,-1,-1,-1,-1],"loss_changes":[6.695668E1,1.3117397E1,3.0277733E1,3.8432608E0,1.0672157E1,2.9494884E1,3.0770222E1,2.0060875E0,0E0,4.526573E0,3.1580915E0,2.954628E0,9.897394E0,1.5931873E1,4.5929317E0,2.821772E0,1.1744428E-1,2.3096714E0,3.108303E0,4.3349857E0,0E0,9.8350525E-2,1.5963106E0,1.0465071E1,7.0740533E0,1.790317E1,1.3721218E1,4.314123E0,0E0,3.6055642E-1,4.5798683E-1,1.3834155E-1,4.5016125E-1,7.7391243E-1,0E0,4.9243336E0,1.3979988E0,2.5708256E0,4.4827194E0,0E0,0E0,3.7437725E-1,1.4048063E0,3.5095863E0,3.9160864E0,2.4780126E0,6.6611843E0,7.955614E0,5.4204683E0,2.8302765E0,1.3893287E1,3.3448794E0,3.1243324E-1,0E0,0E0,0E0,0E0,0E0,0E0,0E0,0E0,0E0,0E0,0E0,0E0,0E0,0E0,0E0,0E0,0E0,0E0,0E0,0E0,0E0,0E0,0E0,0E0,0E0,0E0,0E0,0E0,0E0,0E0,0E0,0E0,0E0,0E0,0E0,0E0,0E0,0E0,0E0,0E0,0E0,0E0],"parents":[2147483647,0,0,1,1,2,2,3,3,4,4,5,5,6,6,7,7,9,9,10,10,11,11,12,12,13,13,14,14,15,15,16,16,17,17,18,18,19,19,21,21,22,22,23,23,24,24,25,25,26,26,27,27,29,29,30,30,31,31,32,32,33,33,35,35,36,36,37,37,38,38,41,41,42,42,43,43,44,44,45,45,46,46,47,47,48,48,49,49,50,50,51,51,52,52],"right_children":[2,4,6,8,10,12,14,16,-1,18,20,22,24,26,28,30,32,34,36,38,-1,40,42,44,46,48,50,52,-1,54,56,58,60,62,-1,64,66,68,70,-1,-1,72,74,76,78,80,82,84,86,88,90,92,94,-1,-1,-1,-1,-1,-1,-1,-1,-1,-1,-1,-1,-1,-1,-1,-1,-1,-1,-1,-1,-1,-1,-1,-1,-1,-1,-1,-1,-1,-1,-1,-1,-1,-1,-1,-1,-1,-1,-1,-1,-1,-1],"split_conditions":[-5.013588E-1,-4.6438822E-1,-3.2495323E-1,1.7945119E0,-1.0103018E0,1.5812647E-2,5.1708245E-1,2.0928805E0,-5.6358457E-2,-6.633271E-1,2.1312475E0,2.2484627E-1,-8.719674E-1,-1.4233168E0,4.0439898E-1,-6.789036E-1,-8.183386E-1,1.6700397E0,7.2617203E-1,-8.120732E-2,-4.7736816E-2,-1.5795243E0,-6.4672625E-1,9.213323E-1,-9.689789E-2,2.292134E0,-6.108434E-1,-9.7924817E-1,-5.4448742E-2,7.61532E-1,1.4625159E-1,-9.416919E-1,-6.6817784E-1,5.652855E-1,-4.28746E-2,1.0830323E0,-5.824728E-1,-3.4116676E-1,9.835904E-1,3.135353E-2,4.9056888E-2,-1.0435797E0,-5.9953105E-2,-1.4860313E0,-1.4439604E-1,-6.360005E-1,6.141024E-1,2.0060939E-1,-1.2803466E0,-1.4861774E0,8.8705856E-1,-1.3905968E-2,-1.5775852E-1,-3.7838903E-3,7.559938E-3,-2.1770595E-2,-0E0,2.4076074E-2,3.3567294E-3,-8.06008E-3,1.3936201E-2,1.3275214E-2,-1.089638E-2,-2.461115E-2,-5.9001055E-2,-5.7146978E-2,-6.888592E-3,-2.1162832E-2,1.6569639E-2,-1.3523142E-2,-5.3282876E-2,5.43751E-2,2.9102761E-2,4.500821E-2,5.968004E-3,1.4684341E-3,3.7648726E-2,1.889048E-2,7.418291E-4,-6.671769E-3,-3.0613635E-2,3.5824686E-2,2.5919273E-3,4.143966E-2,1.5211882E-2,-5.4737907E-2,-5.926246E-3,-0E0,-3.0597089E-2,8.71286E-3,-2.2771617E-2,9.417827E-3,-2.651316E-2,-3.792976E-2,-8.089E-3],"split_indices":[2,0,0,1,5,1,1,8,0,1,0,22,0,1,0,0,0,0,0,1,0,8,0,1,27,0,27,28,0,22,6,2,0,0,0,1,2,19,0,0,0,0,3,8,17,0,1,0,8,5,0,0,17,0,0,0,0,0,0,0,0,0,0,0,0,0,0,0,0,0,0,0,0,0,0,0,0,0,0,0,0,0,0,0,0,0,0,0,0,0,0,0,0,0,0],"split_type":[0,0,0,0,0,0,0,0,0,0,0,0,0,0,0,0,0,0,0,0,0,0,0,0,0,0,0,0,0,0,0,0,0,0,0,0,0,0,0,0,0,0,0,0,0,0,0,0,0,0,0,0,0,0,0,0,0,0,0,0,0,0,0,0,0,0,0,0,0,0,0,0,0,0,0,0,0,0,0,0,0,0,0,0,0,0,0,0,0,0,0,0,0,0,0],"sum_hessian":[1.288E3,3.23E2,9.65E2,7.5E1,2.48E2,4.52E2,5.13E2,7.3E1,2E0,1.2E2,1.28E2,1.02E2,3.5E2,4.43E2,7E1,5.4E1,1.9E1,2.5E1,9.5E1,1.22E2,6E0,6.4E1,3.8E1,1.87E2,1.63E2,1.85E2,2.58E2,5.3E1,1.7E1,3.5E1,1.9E1,8E0,1.1E1,2E1,5E0,6.4E1,3.1E1,2.2E1,1E2,1E1,5.4E1,2.2E1,1.6E1,6.5E1,1.22E2,6.9E1,9.4E1,1.45E2,4E1,5.7E1,2.01E2,2.4E1,2.9E1,8E0,2.7E1,1.6E1,3E0,6E0,2E0,2E0,9E0,3E0,1.7E1,5E1,1.4E1,2.9E1,2E0,5E0,1.7E1,9.3E1,7E0,4E0,1.8E1,2E0,1.4E1,8E0,5.7E1,5.1E1,7.1E1,5.6E1,1.3E1,1.8E1,7.6E1,4.1E1,1.04E2,6E0,3.4E1,9E0,4.8E1,1.57E2,4.4E1,1.3E1,1.1E1,2.7E1,2E0],"tree_param":{"num_deleted":"0","num_feature":"30","num_nodes":"95","size_leaf_vector":"1"}},{"base_weights":[-3.1611966E-3,-3.8350067E-1,1.3328029E-1,-1.5478437E-1,-5.441524E-1,3.5421038E-1,-1.7412039E-2,1.03049695E-1,-2.3632444E-1,-3.7974635E-1,-1.076135E0,8.199886E-1,2.2721753E-1,1.8362254E-1,-2.7381954E-1,1.4547299E-1,-3.0983562E-2,-6.992907E-2,-6.366029E-1,-1.842301E-1,-5.572709E-1,-6.226438E-1,-1.2466271E0,5.7743174E-1,9.016782E-1,3.8272926E-1,6.651788E-2,2.5138286E-1,-3.2499734E-1,-1.6331771E-1,-8.8918984E-1,-9.159318E-2,1.7459531E-1,-1.3664728E-1,2.2653114E-2,-0E0,-7.279832E-1,-6.4144775E-2,-1.20135695E-1,-2.9208234E-1,-8.470347E-1,-3.3816606E-1,-5.5198308E-2,-8.76951E-1,-6.824398E-2,3.200554E-2,2.660428E-1,4.7856756E-2,3.219765E-2,5.0437886E-1,-1.6395614E-1,-2.445807E-1,1.9526026E-1,4.4531348E-1,5.0833996E-2,-9.9995893E-1,-1.371041E-1,-4.6561573E-2,-4.490778E-1,-6.715314E-1,-5.701247E-2,-0E0,-7.288506E-3,9.715981E-3,-7.928352E-3,1.1300667E-2,-1.0796721E-2,7.2688283E-3,-7.0648654E-3,-2.524564E-2,-4.5392275E-2,-8.213776E-3,2.4651043E-2,-2.6298575E-3,-3.5082206E-2,-1.8268315E-2,-5.394438E-2,7.2752754E-3,-2.0554189E-2,-1.2288499E-2,-5.3521134E-2,6.5117836E-4,1.4702098E-2,3.3353753E-2,1.7477144E-2,6.094009E-3,-2.4302896E-2,-2.5724748E-2,1.5809853E-3,5.8319764E-3,3.1935167E-2,4.1839194E-2,1.2600154E-2,-1.2969449E-2,1.0241513E-2,-2.7535463E-2,-6.432656E-2,8.991681E-3,-3.3112083E-2,-1.9112183E-2,1.3513152E-3,-1.3130321E-2,-3.8581733E-2,-1.0378781E-2,-4.4923473E-2],"categories":[],"categories_nodes":[],"categories_segments":[],"categories_sizes":[],"default_left":[0,0,0,0,0,0,0,0,0,0,0,0,0,0,0,0,0,0,0,0,0,0,0,0,0,0,0,0,0,0,0,0,0,0,0,0,0,0,0,0,0,0,0,0,0,0,0,0,0,0,0,0,0,0,0,0,0,0,0,0,0,0,0,0,0,0,0,0,0,0,0,0,0,0,0,0,0,0,0,0,0,0,0,0,0,0,0,0,0,0,0,0,0,0,0,0,0,0,0,0,0,0,0,0,0],"id":13,"left_children":[1,3,5,7,9,11,13,15,17,19,21,23,25,27,29,31,-1,33,35,37,39,41,43,45,47,49,51,53,55,57,59,61,63,65,-1,67,69,-1,71,73,75,77,-1,79,-1,-1,81,-1,-1,83,85,87,89,91,93,95,97,99,101,103,-1,-1,-1,-1,-1,-1,-1,-1,-1,-1,-1,-1,-1,-1,-1,-1,-1,-1,-1,-1,-1,-1,-1,-1,-1,-1,-1,-1,-1,-1,-1,-1,-1,-1,-1,-1,-1,-1,-1,-1,-1,-1,-1,-1,-1],"loss_changes":[6.779791E1,1.2522446E1,3.2033913E1,3.0651093E0,1.7112915E1,2.2777664E1,2.9544052E1,1.1158328E0,7.211322E0,5.237776E0,2.6707497E0,9.760246E-1,7.6267443E0,1.113736E1,1.688541E1,2.590251E-1,0E0,2.786819E0,1.8704443E0,5.057366E0,5.8628902E0,1.536345E0,2.1484375E-2,2.0751E-1,8.109665E-2,1.0491373E1,6.170715E0,1.0973238E1,4.568382E0,7.1028395E0,1.1296272E0,3.0189544E-2,2.381013E-1,2.0893528E0,0E0,1.23297825E-1,5.23756E-1,0E0,2.0238333E0,4.203367E0,3.70508E0,4.7432327E-1,0E0,9.4857407E-1,0E0,0E0,7.969886E-3,0E0,0E0,2.8896408E0,2.7656417E0,3.4193256E0,3.6501231E0,1.0577488E1,6.7836933E0,1.3771105E-1,5.326846E0,3.8499808E0,3.423092E0,2.124547E0,0E0,0E0,0E0,0E0,0E0,0E0,0E0,0E0,0E0,0E0,0E0,0E0,0E0,0E0,0E0,0E0,0E0,0E0,0E0,0E0,0E0,0E0,0E0,0E0,0E0,0E0,0E0,0E0,0E0,0E0,0E0,0E0,0E0,0E0,0E0,0E0,0E0,0E0,0E0,0E0,0E0,0E0,0E0,0E0,0E0],"parents":[2147483647,0,0,1,1,2,2,3,3,4,4,5,5,6,6,7,7,8,8,9,9,10,10,11,11,12,12,13,13,14,14,15,15,17,17,18,18,19,19,20,20,21,21,22,22,23,23,24,24,25,25,26,26,27,27,28,28,29,29,30,30,31,31,32,32,33,33,35,35,36,36,38,38,39,39,40,40,41,41,43,43,46,46,49,49,50,50,51,51,52,52,53,53,54,54,55,55,56,56,57,57,58,58,59,59],"right_children":[2,4,6,8,10,12,14,16,18,20,22,24,26,28,30,32,-1,34,36,38,40,42,44,46,48,50,52,54,56,58,60,62,64,66,-1,68,70,-1,72,74,76,78,-1,80,-1,-1,82,-1,-1,84,86,88,90,92,94,96,98,100,102,104,-1,-1,-1,-1,-1,-1,-1,-1,-1,-1,-1,-1,-1,-1,-1,-1,-1,-1,-1,-1,-1,-1,-1,-1,-1,-1,-1,-1,-1,-1,-1,-1,-1,-1,-1,-1,-1,-1,-1,-1,-1,-1,-1,-1,-1],"split_conditions":[-5.013588E-1,-8.8986345E-2,-4.5366246E-1,-8.183386E-1,1.290026E-1,-6.633271E-1,1.12832606E-1,1.7945119E0,1.0830323E0,7.7980083E-1,-4.637769E-1,-3.7311348E-1,-1.0435797E0,2.292134E0,7.1544623E-1,-7.336149E-1,-3.0983562E-2,5.252945E-1,-7.432582E-1,-1.9478861E0,1.5812647E-2,3.7222168E-1,1.2552902E-1,-6.4672625E-1,-6.4672625E-1,1.7298319E0,-3.6320788E-1,-1.4233168E0,-1.1494565E0,4.173249E-1,1.3804438E0,-1.075757E0,1.3351433E0,5.1708245E-1,2.2653114E-2,-6.9834995E-1,-5.394686E-1,-6.4144775E-2,2.1975927E0,1.7451199E0,-1.3520277E0,-6.7534804E-2,-5.5198308E-2,-1.4094532E0,-6.824398E-2,3.200554E-2,2.846001E-1,4.7856756E-2,3.219765E-2,1.290026E-1,-1.3975301E0,-3.7311348E-1,8.854133E-1,2.0060939E-1,-6.108434E-1,1.3351433E0,3.3325336E0,-2.4298321E-2,5.1708245E-1,1.290026E-1,-5.701247E-2,-0E0,-7.288506E-3,9.715981E-3,-7.928352E-3,1.1300667E-2,-1.0796721E-2,7.2688283E-3,-7.0648654E-3,-2.524564E-2,-4.5392275E-2,-8.213776E-3,2.4651043E-2,-2.6298575E-3,-3.5082206E-2,-1.8268315E-2,-5.394438E-2,7.2752754E-3,-2.0554189E-2,-1.2288499E-2,-5.3521134E-2,6.5117836E-4,1.4702098E-2,3.3353753E-2,1.7477144E-2,6.094009E-3,-2.4302896E-2,-2.5724748E-2,1.5809853E-3,5.8319764E-3,3.1935167E-2,4.1839194E-2,1.2600154E-2,-1.2969449E-2,1.0241513E-2,-2.7535463E-2,-6.432656E-2,8.991681E-3,-3.3112083E-2,-1.9112183E-2,1.3513152E-3,-1.3130321E-2,-3.8581733E-2,-1.0378781E-2,-4.4923473E-2],"split_indices":[2,0,0,0,1,1,1,1,1,0,4,23,0,0,0,4,0,27,0,4,1,0,0,0,0,1,21,1,8,5,0,0,4,1,0,2,0,0,8,0,3,0,0,3,0,0,3,0,0,1,0,23,4,0,27,4,0,7,1,1,0,0,0,0,0,0,0,0,0,0,0,0,0,0,0,0,0,0,0,0,0,0,0,0,0,0,0,0,0,0,0,0,0,0,0,0,0,0,0,0,0,0,0,0,0],"split_type":[0,0,0,0,0,0,0,0,0,0,0,0,0,0,0,0,0,0,0,0,0,0,0,0,0,0,0,0,0,0,0,0,0,0,0,0,0,0,0,0,0,0,0,0,0,0,0,0,0,0,0,0,0,0,0,0,0,0,0,0,0,0,0,0,0,0,0,0,0,0,0,0,0,0,0,0,0,0,0,0,0,0,0,0,0,0,0,0,0,0,0,0,0,0,0,0,0,0,0,0,0,0,0,0,0],"sum_hessian":[1.304E3,3.44E2,9.6E2,1.43E2,2.01E2,3.89E2,5.71E2,3.4E1,1.09E2,1.55E2,4.6E1,8.2E1,3.07E2,3.2E2,2.51E2,3.3E1,1E0,7.8E1,3.1E1,7.5E1,8E1,1.4E1,3.2E1,2.3E1,5.9E1,1.55E2,1.52E2,2.83E2,3.7E1,2.14E2,3.7E1,3E0,3E1,7E1,8E0,4E0,2.7E1,3E0,7.2E1,4.3E1,3.7E1,1E1,4E0,1E1,2.2E1,1.8E1,5E0,4.6E1,1.3E1,1.27E2,2.8E1,4.4E1,1.08E2,1.43E2,1.4E2,7E0,3E1,1.53E2,6.1E1,2.2E1,1.5E1,1E0,2E0,2.9E1,1E0,1.2E1,5.8E1,2E0,2E0,1.4E1,1.3E1,6.8E1,4E0,2.8E1,1.5E1,1.3E1,2.4E1,1E0,9E0,3E0,7E0,1E0,4E0,6E1,6.7E1,1.5E1,1.3E1,2.2E1,2.2E1,9.3E1,1.5E1,4.6E1,9.7E1,4.6E1,9.4E1,4E0,3E0,1.9E1,1.1E1,2.7E1,1.26E2,4E1,2.1E1,8E0,1.4E1],"tree_param":{"num_deleted":"0","num_feature":"30","num_nodes":"105","size_leaf_vector":"1"}},{"base_weights":[-6.0126926E-3,3.2288313E-1,-1.4499956E-1,5.7269794E-1,9.5708996E-2,3.0400655E-1,-2.7835423E-1,8.3681697E-1,4.1434732E-1,2.886049E-1,-2.4623714E-2,4.4218627E-1,-2.8490293E-1,-1.274632E-1,-5.0795513E-1,4.5266803E-2,6.5096724E-1,5.421016E-1,-4.4883084E-2,4.999806E-1,-6.29289E-2,-3.715965E-1,1.4796534E-1,7.859711E-1,2.8609306E-1,2.7485183E-2,-6.3688374E-1,3.0620301E-2,-3.3239606E-1,-1.8654414E-1,-7.482169E-1,5.748705E-3,3.3312693E-2,1.9124107E-1,6.4974934E-1,-1.8944855E-1,2.900908E-2,3.392797E-2,3.499759E-1,2.4981299E-1,-2.6240122E-1,-2.0321311E-2,-6.056508E-1,5.171564E-1,7.167464E-2,8.1897664E-1,1.6016039E-1,8.282979E-1,7.3548265E-2,2.9401636E-1,-3.5780035E-2,-4.4047788E-1,-6.191432E-2,-2.4131936E-1,2.4108386E-1,6.92511E-2,-4.0210316E-1,-3.2682545E-2,-7.6591086E-1,-6.092353E-1,-1.1034181E0,2.0021038E-2,1.0512042E-3,4.0905904E-2,2.5236452E-2,-1.4837411E-3,-1.6871683E-2,6.5318593E-3,1.9858351E-2,1.8835565E-2,2.1731388E-3,-1.6273795E-2,7.4577867E-3,2.0282196E-2,-8.907154E-3,-0E0,-3.4230527E-2,3.687044E-3,3.1114666E-2,9.333118E-3,-9.41868E-3,5.1105272E-2,3.379993E-2,1.1464741E-2,-0E0,6.264115E-2,1.9968508E-2,-6.7152963E-3,4.987772E-2,-1.7175793E-4,2.1328704E-2,-1.2664181E-2,-4.5686986E-2,-2.0362895E-3,-3.0308722E-2,3.1163713E-2,7.844611E-3,-2.6845235E-2,1.143578E-2,-1.1681409E-2,-3.221689E-2,-8.056974E-3,3.325304E-2,-1.5955426E-2,-4.581918E-2,-1.764131E-2,-5.2511115E-2,-9.65964E-3,-5.590547E-2],"categories":[],"categories_nodes":[],"categories_segments":[],"categories_sizes":[],"default_left":[0,0,0,0,0,0,0,0,0,0,0,0,0,0,0,0,0,0,0,0,0,0,0,0,0,0,0,0,0,0,0,0,0,0,0,0,0,0,0,0,0,0,0,0,0,0,0,0,0,0,0,0,0,0,0,0,0,0,0,0,0,0,0,0,0,0,0,0,0,0,0,0,0,0,0,0,0,0,0,0,0,0,0,0,0,0,0,0,0,0,0,0,0,0,0,0,0,0,0,0,0,0,0,0,0,0,0,0,0],"id":14,"left_children":[1,3,5,7,9,11,13,15,17,19,21,23,25,27,29,-1,31,33,35,37,39,41,43,45,47,49,51,53,55,57,59,-1,-1,61,63,65,-1,-1,67,69,71,73,75,77,79,81,83,85,87,89,-1,91,-1,93,95,97,99,101,103,105,107,-1,-1,-1,-1,-1,-1,-1,-1,-1,-1,-1,-1,-1,-1,-1,-1,-1,-1,-1,-1,-1,-1,-1,-1,-1,-1,-1,-1,-1,-1,-1,-1,-1,-1,-1,-1,-1,-1,-1,-1,-1,-1,-1,-1,-1,-1,-1,-1],"loss_changes":[5.895206E1,2.1614159E1,5.4390553E1,7.1400146E0,4.7222652E0,1.7067781E1,2.4123013E1,1.0822296E-1,6.8796196E0,5.871012E0,7.56281E0,8.736889E0,4.4766293E0,1.3776472E1,2.1157654E1,0E0,2.5531769E-2,3.228653E0,2.4202733E0,9.7226334E-1,1.9383106E0,3.3782282E0,2.269981E0,8.449898E-1,1.3447548E1,4.5254617E0,1.5309467E0,1.37941675E1,5.240698E0,1.0592184E1,6.9563904E0,0E0,0E0,7.683736E-1,1.1395531E0,4.7344685E-1,0E0,0E0,1.9550896E-1,2.558356E-1,5.5939615E-1,1.2595912E0,1.1408939E0,5.37179E-1,2.1580586E0,5.623512E-1,5.5122934E-2,5.3434315E0,1.6737337E1,7.140807E-1,0E0,1.0693331E0,0E0,7.5953183E0,4.2002993E0,2.7984688E0,6.2097263E0,8.661254E0,1.2648125E0,1.2605625E1,2.2786713E-1,0E0,0E0,0E0,0E0,0E0,0E0,0E0,0E0,0E0,0E0,0E0,0E0,0E0,0E0,0E0,0E0,0E0,0E0,0E0,0E0,0E0,0E0,0E0,0E0,0E0,0E0,0E0,0E0,0E0,0E0,0E0,0E0,0E0,0E0,0E0,0E0,0E0,0E0,0E0,0E0,0E0,0E0,0E0,0E0,0E0,0E0,0E0,0E0],"parents":[2147483647,0,0,1,1,2,2,3,3,4,4,5,5,6,6,7,7,8,8,9,9,10,10,11,11,12,12,13,13,14,14,16,16,17,17,18,18,19,19,20,20,21,21,22,22,23,23,24,24,25,25,26,26,27,27,28,28,29,29,30,30,33,33,34,34,35,35,38,38,39,39,40,40,41,41,42,42,43,43,44,44,45,45,46,46,47,47,48,48,49,49,51,51,53,53,54,54,55,55,56,56,57,57,58,58,59,59,60,60],"right_children":[2,4,6,8,10,12,14,16,18,20,22,24,26,28,30,-1,32,34,36,38,40,42,44,46,48,50,52,54,56,58,60,-1,-1,62,64,66,-1,-1,68,70,72,74,76,78,80,82,84,86,88,90,-1,92,-1,94,96,98,100,102,104,106,108,-1,-1,-1,-1,-1,-1,-1,-1,-1,-1,-1,-1,-1,-1,-1,-1,-1,-1,-1,-1,-1,-1,-1,-1,-1,-1,-1,-1,-1,-1,-1,-1,-1,-1,-1,-1,-1,-1,-1,-1,-1,-1,-1,-1,-1,-1,-1,-1],"split_conditions":[-6.4672625E-1,1.290026E-1,-8.89707E-1,-6.633271E-1,-1.1830146E0,2.292134E0,2.971413E-1,-7.53984E-1,-8.5051584E-1,1.7298319E0,-1.0059742E0,2.0060939E-1,-9.1561085E-1,7.111224E-1,8.049262E-2,4.5266803E-2,-1.5795243E0,-1.1494565E0,-4.8619324E-1,-1.311724E0,-1.4297073E0,-7.352222E-1,8.417166E-1,1.1959888E0,-1.9084166E0,3.7615643E0,1.0971471E0,-3.855233E-1,-9.7924817E-1,1.6378623E0,1.047945E0,5.748705E-3,3.3312693E-2,3.9945117E-1,-1.1293858E0,-6.135293E-1,2.900908E-2,3.392797E-2,-3.8693756E-1,-1.4726104E0,-1.2688208E0,-8.8986146E-1,9.213323E-1,-1.3502129E0,-7.3253244E-1,-2.2842133E-1,-1.3905968E-2,1.144477E0,-4.8619324E-1,-2.7977428E-1,-3.5780035E-2,-1.9084166E0,-6.191432E-2,-6.633271E-1,-3.2495323E-1,-4.1452E-1,-3.4640476E-1,8.2521826E-1,5.334174E-1,1.290026E-1,-1.6047E0,2.0021038E-2,1.0512042E-3,4.0905904E-2,2.5236452E-2,-1.4837411E-3,-1.6871683E-2,6.5318593E-3,1.9858351E-2,1.8835565E-2,2.1731388E-3,-1.6273795E-2,7.4577867E-3,2.0282196E-2,-8.907154E-3,-0E0,-3.4230527E-2,3.687044E-3,3.1114666E-2,9.333118E-3,-9.41868E-3,5.1105272E-2,3.379993E-2,1.1464741E-2,-0E0,6.264115E-2,1.9968508E-2,-6.7152963E-3,4.987772E-2,-1.7175793E-4,2.1328704E-2,-1.2664181E-2,-4.5686986E-2,-2.0362895E-3,-3.0308722E-2,3.1163713E-2,7.844611E-3,-2.6845235E-2,1.143578E-2,-1.1681409E-2,-3.221689E-2,-8.056974E-3,3.325304E-2,-1.5955426E-2,-4.581918E-2,-1.764131E-2,-5.2511115E-2,-9.65964E-3,-5.590547E-2],"split_indices":[0,1,1,1,0,0,0,0,0,1,12,0,22,1,1,0,8,8,9,0,0,14,12,11,1,0,5,27,28,0,0,0,0,3,0,14,0,0,11,0,0,6,1,5,0,0,0,0,9,21,0,1,0,1,0,13,0,5,8,1,3,0,0,0,0,0,0,0,0,0,0,0,0,0,0,0,0,0,0,0,0,0,0,0,0,0,0,0,0,0,0,0,0,0,0,0,0,0,0,0,0,0,0,0,0,0,0,0,0],"split_type":[0,0,0,0,0,0,0,0,0,0,0,0,0,0,0,0,0,0,0,0,0,0,0,0,0,0,0,0,0,0,0,0,0,0,0,0,0,0,0,0,0,0,0,0,0,0,0,0,0,0,0,0,0,0,0,0,0,0,0,0,0,0,0,0,0,0,0,0,0,0,0,0,0,0,0,0,0,0,0,0,0,0,0,0,0,0,0,0,0,0,0,0,0,0,0,0,0,0,0,0,0,0,0,0,0,0,0,0,0],"sum_hessian":[1.288E3,3.82E2,9.06E2,1.81E2,2.01E2,2.07E2,6.99E2,6.6E1,1.15E2,7.7E1,1.24E2,1.68E2,3.9E1,4.23E2,2.76E2,4.5E1,2.1E1,9E1,2.5E1,4.8E1,2.9E1,4.1E1,8.3E1,5.1E1,1.17E2,2.1E1,1.8E1,2.39E2,1.84E2,1.19E2,1.57E2,1E0,2E1,2.2E1,6.8E1,2.1E1,4E0,2E1,2.8E1,1.1E1,1.8E1,1.7E1,2.4E1,1.3E1,7E1,4.8E1,3E0,3.2E1,8.5E1,1.6E1,5E0,1.5E1,3E0,1.04E2,1.35E2,2.7E1,1.57E2,9.5E1,2.4E1,1.15E2,4.2E1,9E0,1.3E1,2.9E1,3.9E1,1.1E1,1E1,6E0,2.2E1,6E0,5E0,1.6E1,2E0,4E0,1.3E1,3E0,2.1E1,3E0,1E1,4.9E1,2.1E1,1.7E1,3.1E1,2E0,1E0,1.5E1,1.7E1,7E1,1.5E1,5E0,1.1E1,1.2E1,3E0,6.8E1,3.6E1,2.3E1,1.12E2,5E0,2.2E1,9.4E1,6.3E1,8.1E1,1.4E1,7E0,1.7E1,7.4E1,4.1E1,1E0,4.1E1],"tree_param":{"num_deleted":"0","num_feature":"30","num_nodes":"109","size_leaf_vector":"1"}},{"base_weights":[-1.1051628E-2,3.1612384E-1,-1.465554E-1,7.796094E-1,2.0748371E-1,9.2953056E-2,-3.5313416E-1,8.180625E-1,2.9139355E-1,3.469106E-1,4.8892416E-2,1.6822325E-1,-3.5248423E-1,-1.8879053E-1,-7.56802E-1,4.591405E-2,6.5508425E-1,3.5324793E-2,-1.7155716E-1,4.5375505E-1,-7.34988E-3,-2.1907394E-1,1.6646129E-1,3.9768147E-1,-0E0,-5.4361784E-1,-4.3861777E-2,-1.3733211E-1,-7.1729815E-1,-6.457199E-1,-1.0241956E0,1.1289996E-2,3.3740822E-2,-0E0,-1.11289965E-2,5.582861E-1,3.1383473E-1,2.2369221E-1,-1.3532062E-1,-0E0,-5.78869E-1,2.34105E-1,-1.396533E-1,8.5026026E-1,2.8597477E-1,4.5539057E-1,-9.464491E-2,-3.5817248E-1,-5.45128E-2,1.14623755E-1,-2.9075164E-2,-4.27912E-2,-9.443249E-2,-5.8765125E-1,-6.269659E-2,-4.6135792E-1,-9.7836596E-1,-7.164787E-2,-8.910353E-1,3.662156E-2,2.2874964E-2,2.1987043E-2,5.9112287E-3,1.7767746E-2,3.4012906E-3,-1.6342262E-2,9.690163E-3,1.1196822E-2,-1.4709513E-2,-4.303282E-2,1.2477609E-2,9.218615E-3,3.3861786E-2,-1.6365534E-2,-0E0,4.7336873E-2,-0E0,3.56245E-2,5.6501008E-3,2.5687162E-2,-1.7192677E-2,-1.02525605E-2,1.864004E-2,7.4884193E-3,-2.2296187E-2,2.5793603E-2,-2.109994E-2,4.822679E-3,-1.11551685E-2,-1.988125E-2,-3.4359638E-2,-5.8506437E-2,-1.5984982E-2,-5.170902E-3,-5.258713E-2,-2.430929E-2,-4.9856987E-2],"categories":[],"categories_nodes":[],"categories_segments":[],"categories_sizes":[],"default_left":[0,0,0,0,0,0,0,0,0,0,0,0,0,0,0,0,0,0,0,0,0,0,0,0,0,0,0,0,0,0,0,0,0,0,0,0,0,0,0,0,0,0,0,0,0,0,0,0,0,0,0,0,0,0,0,0,0,0,0,0,0,0,0,0,0,0,0,0,0,0,0,0,0,0,0,0,0,0,0,0,0,0,0,0,0,0,0,0,0,0,0,0,0,0,0,0,0],"id":15,"left_children":[1,3,5,7,9,11,13,15,17,19,21,23,25,27,29,-1,31,-1,33,35,37,39,41,43,45,47,49,51,53,55,57,-1,-1,-1,-1,59,61,63,65,67,69,71,73,75,77,79,81,83,-1,85,-1,-1,87,89,-1,91,93,-1,95,-1,-1,-1,-1,-1,-1,-1,-1,-1,-1,-1,-1,-1,-1,-1,-1,-1,-1,-1,-1,-1,-1,-1,-1,-1,-1,-1,-1,-1,-1,-1,-1,-1,-1,-1,-1,-1,-1],"loss_changes":[5.784027E1,1.8974434E1,4.5726444E1,1.0023613E0,6.8202543E0,1.4390919E1,3.2667328E1,3.191185E-1,1.5199018E0,6.293354E0,4.6623673E0,1.4127581E1,3.5746727E0,9.443471E0,3.419136E0,0E0,3.2157898E-3,0E0,3.089802E-2,1.5950832E0,1.1745315E0,3.536816E0,2.1749315E0,7.479416E0,9.258588E0,3.3167744E0,2.2435517E0,9.810822E0,1.2357264E0,5.782688E0,6.6801834E-1,0E0,0E0,0E0,0E0,7.920799E-1,1.2960415E0,2.2042501E-1,1.715566E0,1.9776309E0,4.244347E0,1.6622133E0,4.8650026E-1,2.5121422E0,9.132651E0,1.9192472E0,9.194453E0,1.433574E0,0E0,4.533462E0,0E0,0E0,7.5745573E0,1.2899113E-1,0E0,6.404752E0,2.0869408E0,0E0,7.8442955E-1,0E0,0E0,0E0,0E0,0E0,0E0,0E0,0E0,0E0,0E0,0E0,0E0,0E0,0E0,0E0,0E0,0E0,0E0,0E0,0E0,0E0,0E0,0E0,0E0,0E0,0E0,0E0,0E0,0E0,0E0,0E0,0E0,0E0,0E0,0E0,0E0,0E0,0E0],"parents":[2147483647,0,0,1,1,2,2,3,3,4,4,5,5,6,6,7,7,8,8,9,9,10,10,11,11,12,12,13,13,14,14,16,16,18,18,19,19,20,20,21,21,22,22,23,23,24,24,25,25,26,26,27,27,28,28,29,29,30,30,35,35,36,36,37,37,38,38,39,39,40,40,41,41,42,42,43,43,44,44,45,45,46,46,47,47,49,49,52,52,53,53,55,55,56,56,58,58],"right_children":[2,4,6,8,10,12,14,16,18,20,22,24,26,28,30,-1,32,-1,34,36,38,40,42,44,46,48,50,52,54,56,58,-1,-1,-1,-1,60,62,64,66,68,70,72,74,76,78,80,82,84,-1,86,-1,-1,88,90,-1,92,94,-1,96,-1,-1,-1,-1,-1,-1,-1,-1,-1,-1,-1,-1,-1,-1,-1,-1,-1,-1,-1,-1,-1,-1,-1,-1,-1,-1,-1,-1,-1,-1,-1,-1,-1,-1,-1,-1,-1,-1],"split_conditions":[-6.4672625E-1,-6.633271E-1,9.666262E-2,1.7848734E0,-1.0435797E0,1.8952807E0,3.8294744E-1,-7.53984E-1,-1.0435797E0,1.7298319E0,-3.6320788E-1,-8.89707E-1,-4.8619324E-1,1.0830323E0,1.144477E0,4.591405E-2,-4.5675465E-1,3.5324793E-2,-8.6124164E-1,-1.1937405E0,-1.4297073E0,9.213323E-1,1.0830323E0,-1.3905968E-2,-2.4987286E-1,1.0163902E0,-1.4233168E0,-7.190903E-1,-2.6059863E-1,6.141024E-1,-1.1462662E0,1.1289996E-2,3.3740822E-2,-0E0,-1.11289965E-2,1.290026E-1,1.290026E-1,-1.4726104E0,-1.2688208E0,-8.6124164E-1,-1.0059742E0,1.493406E0,7.177725E-1,1.4250894E0,-1.9084166E0,1.4250894E0,3.4320536E-1,-1.8295743E0,-5.45128E-2,3.3325336E0,-2.9075164E-2,-4.27912E-2,5.4942244E-1,-5.394686E-1,-6.269659E-2,1.5774632E-1,-7.352222E-1,-7.164787E-2,1.423347E0,3.662156E-2,2.2874964E-2,2.1987043E-2,5.9112287E-3,1.7767746E-2,3.4012906E-3,-1.6342262E-2,9.690163E-3,1.1196822E-2,-1.4709513E-2,-4.303282E-2,1.2477609E-2,9.218615E-3,3.3861786E-2,-1.6365534E-2,-0E0,4.7336873E-2,-0E0,3.56245E-2,5.6501008E-3,2.5687162E-2,-1.7192677E-2,-1.02525605E-2,1.864004E-2,7.4884193E-3,-2.2296187E-2,2.5793603E-2,-2.109994E-2,4.822679E-3,-1.11551685E-2,-1.988125E-2,-3.4359638E-2,-5.8506437E-2,-1.5984982E-2,-5.170902E-3,-5.258713E-2,-2.430929E-2,-4.9856987E-2],"split_indices":[0,1,1,4,0,0,0,0,0,1,21,1,9,1,0,0,21,0,0,0,0,1,1,0,0,7,1,27,0,1,5,0,0,0,0,1,1,0,0,0,12,27,9,4,1,4,9,7,0,0,0,0,1,0,0,7,14,0,0,0,0,0,0,0,0,0,0,0,0,0,0,0,0,0,0,0,0,0,0,0,0,0,0,0,0,0,0,0,0,0,0,0,0,0,0,0,0],"split_type":[0,0,0,0,0,0,0,0,0,0,0,0,0,0,0,0,0,0,0,0,0,0,0,0,0,0,0,0,0,0,0,0,0,0,0,0,0,0,0,0,0,0,0,0,0,0,0,0,0,0,0,0,0,0,0,0,0,0,0,0,0,0,0,0,0,0,0,0,0,0,0,0,0,0,0,0,0,0,0,0,0,0,0,0,0,0,0,0,0,0,0,0,0,0,0,0,0],"sum_hessian":[1.303E3,3.81E2,9.22E2,7.1E1,3.1E2,4.27E2,4.95E2,6.5E1,6E0,1.64E2,1.46E2,3.66E2,6.1E1,3.53E2,1.42E2,3.7E1,2.8E1,3E0,3E0,1.26E2,3.8E1,4.4E1,1.02E2,1.54E2,2.12E2,3.7E1,2.4E1,3.23E2,3E1,1.03E2,3.9E1,2E0,2.6E1,1E0,2E0,7E1,5.6E1,1.3E1,2.5E1,2.8E1,1.6E1,8.4E1,1.8E1,2.9E1,1.25E2,3.6E1,1.76E2,2.9E1,8E0,1.9E1,5E0,1.7E1,3.06E2,2.6E1,4E0,6.8E1,3.5E1,7E0,3.2E1,2.3E1,4.7E1,3.3E1,2.3E1,6E0,7E0,1.6E1,9E0,1.6E1,1.2E1,1.2E1,4E0,7.7E1,7E0,7E0,1.1E1,2.6E1,3E0,3.5E1,9E1,3.4E1,2E0,1.43E2,3.3E1,4E0,2.5E1,1.1E1,8E0,1.23E2,1.83E2,1.1E1,1.5E1,1E1,5.8E1,3E0,3.2E1,8E0,2.4E1],"tree_param":{"num_deleted":"0","num_feature":"30","num_nodes":"97","size_leaf_vector":"1"}},{"base_weights":[-7.239128E-3,-3.5836375E-1,1.2223978E-1,-1.3064758E-2,-4.695324E-1,3.276769E-1,-9.050308E-3,2.1838877E-2,-5.0967246E-2,-3.6354494E-1,-7.551329E-1,7.0943713E-1,2.1711236E-1,2.8830197E-1,-1.5073438E-1,-9.199432E-2,1.7894965E-1,-2.0631194E-1,-5.83773E-1,-4.273387E-1,-1.1279092E0,7.6317924E-1,4.338022E-1,3.344864E-1,8.723396E-2,5.9473765E-1,3.462334E-2,-4.0990967E-2,-3.9739665E-1,6.711404E-2,-2.9485977E-1,5.0576746E-2,2.8588453E-1,1.0637529E-1,-3.2416528E-1,-9.5069325E-1,-3.8765046E-1,-1.775695E-1,-8.0846477E-1,-1.1671534E0,-0E0,1.4913427E-2,3.893745E-2,3.3855103E-3,2.3706088E-2,4.3273047E-1,-3.818633E-2,1.723852E-1,-2.4987394E-1,7.0736814E-1,-6.711875E-2,-1.575247E-1,4.6899945E-1,-2.9615474E-1,7.406175E-2,-2.5864872E-1,-8.6202294E-1,-2.1413264E-3,7.332681E-3,-1.5713954E-2,3.2363887E-4,-1.4369907E-3,5.0481674E-3,1.796723E-2,-9.617525E-3,1.9796586E-2,-4.107758E-3,-1.8984623E-2,1.6329495E-2,-5.348728E-2,-2.2171875E-2,-1.426459E-2,-4.6402562E-2,1.3977935E-2,-2.8192649E-2,-5.176126E-2,-2.90781E-2,-6.231705E-2,-2.430548E-2,9.814101E-3,2.4623187E-2,1.1985175E-2,-1.2310031E-2,5.7558743E-3,2.6227871E-2,-1.69815E-2,1.0546491E-2,6.1892577E-2,3.148284E-2,4.1457478E-2,-2.144571E-2,6.9477386E-3,-2.3888657E-2,4.2719718E-2,-7.6150224E-3,-1.0370848E-2,-3.4488495E-2,9.637002E-3,-1.6414462E-2,-2.5335465E-2,2.2510495E-3,-4.6436295E-2,-1.8139236E-2],"categories":[],"categories_nodes":[],"categories_segments":[],"categories_sizes":[],"default_left":[0,0,0,0,0,0,0,0,0,0,0,0,0,0,0,0,0,0,0,0,0,0,0,0,0,0,0,0,0,0,0,0,0,0,0,0,0,0,0,0,0,0,0,0,0,0,0,0,0,0,0,0,0,0,0,0,0,0,0,0,0,0,0,0,0,0,0,0,0,0,0,0,0,0,0,0,0,0,0,0,0,0,0,0,0,0,0,0,0,0,0,0,0,0,0,0,0,0,0,0,0,0,0],"id":16,"left_children":[1,3,5,7,9,11,13,15,-1,17,19,21,23,25,27,29,31,33,35,37,39,41,43,45,47,49,51,53,55,57,59,61,63,65,67,69,71,73,75,77,-1,-1,-1,-1,-1,79,81,83,85,87,89,91,93,95,97,99,101,-1,-1,-1,-1,-1,-1,-1,-1,-1,-1,-1,-1,-1,-1,-1,-1,-1,-1,-1,-1,-1,-1,-1,-1,-1,-1,-1,-1,-1,-1,-1,-1,-1,-1,-1,-1,-1,-1,-1,-1,-1,-1,-1,-1,-1,-1],"loss_changes":[5.871499E1,1.3304077E1,2.546929E1,3.1425757E0,7.5746384E0,1.5286278E1,2.4296627E1,1.5274493E0,0E0,6.5182133E0,7.916054E0,7.639122E-1,4.3037806E0,1.4375402E1,1.0524071E1,1.6241658E0,4.460863E-1,4.2941537E0,5.2545395E0,3.470386E0,1.5199203E0,1.4500809E-1,1.4988446E-1,5.547909E0,3.9966373E0,6.3733025E0,8.701872E0,8.029325E0,7.4008865E0,2.6151288E-1,1.6155136E-1,8.2060866E-2,7.5331163E-1,1.8107922E0,3.1646214E0,1.0048447E0,2.600893E0,4.600586E0,8.062363E-3,8.9273834E-1,0E0,0E0,0E0,0E0,0E0,1.5151997E0,1.9094268E0,2.1143055E0,1.2425855E0,2.001995E0,4.531065E0,6.936462E0,7.8626003E0,2.7361374E0,9.02678E0,7.1498575E0,4.330387E-1,0E0,0E0,0E0,0E0,0E0,0E0,0E0,0E0,0E0,0E0,0E0,0E0,0E0,0E0,0E0,0E0,0E0,0E0,0E0,0E0,0E0,0E0,0E0,0E0,0E0,0E0,0E0,0E0,0E0,0E0,0E0,0E0,0E0,0E0,0E0,0E0,0E0,0E0,0E0,0E0,0E0,0E0,0E0,0E0,0E0,0E0],"parents":[2147483647,0,0,1,1,2,2,3,3,4,4,5,5,6,6,7,7,9,9,10,10,11,11,12,12,13,13,14,14,15,15,16,16,17,17,18,18,19,19,20,20,21,21,22,22,23,23,24,24,25,25,26,26,27,27,28,28,29,29,30,30,31,31,32,32,33,33,34,34,35,35,36,36,37,37,38,38,39,39,45,45,46,46,47,47,48,48,49,49,50,50,51,51,52,52,53,53,54,54,55,55,56,56],"right_children":[2,4,6,8,10,12,14,16,-1,18,20,22,24,26,28,30,32,34,36,38,40,42,44,46,48,50,52,54,56,58,60,62,64,66,68,70,72,74,76,78,-1,-1,-1,-1,-1,80,82,84,86,88,90,92,94,96,98,100,102,-1,-1,-1,-1,-1,-1,-1,-1,-1,-1,-1,-1,-1,-1,-1,-1,-1,-1,-1,-1,-1,-1,-1,-1,-1,-1,-1,-1,-1,-1,-1,-1,-1,-1,-1,-1,-1,-1,-1,-1,-1,-1,-1,-1,-1,-1],"split_conditions":[-5.013588E-1,-4.6438822E-1,-5.394686E-1,1.7945119E0,9.213323E-1,-6.633271E-1,-8.89707E-1,2.3423985E-1,-5.0967246E-2,7.7980083E-1,7.1900174E-2,-6.4672625E-1,-1.0435797E0,8.2270396E-1,5.1708245E-1,-7.432582E-1,4.825054E-1,2.3589132E-2,-1.1462662E0,1.0830323E0,1.2723993E1,-4.3216404E-1,-3.7180495E-1,1.7298319E0,1.0311321E0,1.4250894E0,1.3294997E0,-3.74452E-1,3.936732E-1,3.6222818E-1,5.500716E0,2.498629E-1,1.3351433E0,2.7568978E-1,1.8414738E0,4.2640284E-2,2.1312475E0,-1.3520277E0,-4.637769E-1,-5.824728E-1,-0E0,1.4913427E-2,3.893745E-2,3.3855103E-3,2.3706088E-2,-3.8693756E-1,-1.4297073E0,8.9167863E-1,1.3294997E0,-1.9084166E0,-1.9084166E0,-1.5041667E0,2.9142287E0,-6.633271E-1,8.65607E-1,9.625575E-1,1.6896703E0,-2.1413264E-3,7.332681E-3,-1.5713954E-2,3.2363887E-4,-1.4369907E-3,5.0481674E-3,1.796723E-2,-9.617525E-3,1.9796586E-2,-4.107758E-3,-1.8984623E-2,1.6329495E-2,-5.348728E-2,-2.2171875E-2,-1.426459E-2,-4.6402562E-2,1.3977935E-2,-2.8192649E-2,-5.176126E-2,-2.90781E-2,-6.231705E-2,-2.430548E-2,9.814101E-3,2.4623187E-2,1.1985175E-2,-1.2310031E-2,5.7558743E-3,2.6227871E-2,-1.69815E-2,1.0546491E-2,6.1892577E-2,3.148284E-2,4.1457478E-2,-2.144571E-2,6.9477386E-3,-2.3888657E-2,4.2719718E-2,-7.6150224E-3,-1.0370848E-2,-3.4488495E-2,9.637002E-3,-1.6414462E-2,-2.5335465E-2,2.2510495E-3,-4.6436295E-2,-1.8139236E-2],"split_indices":[2,0,0,1,1,1,1,8,0,0,0,0,0,0,1,0,20,22,5,1,26,11,6,1,3,4,2,20,0,13,13,6,4,0,9,6,0,3,4,2,0,0,0,0,0,11,0,9,2,1,1,1,0,1,0,27,24,0,0,0,0,0,0,0,0,0,0,0,0,0,0,0,0,0,0,0,0,0,0,0,0,0,0,0,0,0,0,0,0,0,0,0,0,0,0,0,0,0,0,0,0,0,0],"split_type":[0,0,0,0,0,0,0,0,0,0,0,0,0,0,0,0,0,0,0,0,0,0,0,0,0,0,0,0,0,0,0,0,0,0,0,0,0,0,0,0,0,0,0,0,0,0,0,0,0,0,0,0,0,0,0,0,0,0,0,0,0,0,0,0,0,0,0,0,0,0,0,0,0,0,0,0,0,0,0,0,0,0,0,0,0,0,0,0,0,0,0,0,0,0,0,0,0,0,0,0,0,0,0],"sum_hessian":[1.289E3,3.47E2,9.42E2,8.5E1,2.62E2,3.67E2,5.75E2,8.3E1,2E0,1.93E2,6.9E1,8.1E1,2.86E2,1.85E2,3.9E2,4.8E1,3.5E1,1.14E2,7.9E1,3.8E1,3.1E1,6.6E1,1.5E1,1.49E2,1.37E2,8.3E1,1.02E2,2.71E2,1.19E2,2.7E1,2.1E1,1.7E1,1.8E1,3.1E1,8.3E1,2.6E1,5.3E1,2.4E1,1.4E1,3E1,1E0,3E0,6.3E1,2E0,1.3E1,1.18E2,3.1E1,1.1E2,2.7E1,7.1E1,1.2E1,7.1E1,3.1E1,8.4E1,1.87E2,9.3E1,2.6E1,1.1E1,1.6E1,2E1,1E0,6E0,1.1E1,1.6E1,2E0,1.2E1,1.9E1,7.7E1,6E0,2E1,6E0,4.6E1,7E0,1.1E1,1.3E1,5E0,9E0,2.6E1,4E0,2.5E1,9.3E1,1.3E1,1.8E1,9.6E1,1.4E1,2.3E1,4E0,7E0,6.4E1,3E0,9E0,3.7E1,3.4E1,1.9E1,1.2E1,7E1,1.4E1,1.45E2,4.2E1,5.1E1,4.2E1,2.2E1,4E0],"tree_param":{"num_deleted":"0","num_feature":"30","num_nodes":"103","size_leaf_vector":"1"}},{"base_weights":[-1.0113883E-2,-3.0827218E-1,9.7216375E-2,-1.0814501E-1,-4.6273294E-1,2.5905395E-1,-4.3948837E-2,3.4377313E-1,-1.4682268E-1,-3.5009944E-1,-9.1031426E-1,6.0926354E-1,1.5650316E-1,2.4205188E-1,-2.1970893E-1,2.8331587E-2,1.4901485E-1,-5.2835625E-2,-3.6248684E-1,-6.5627027E-1,-2.2689933E-1,-5.112456E-1,-1.0310086E0,7.2062045E-1,3.885008E-1,